{"learner":{"attributes":{"scikit_learn":"{\"_estimator_type\": \"classifier\"}"},"feature_names":[],"feature_types":[],"gradient_booster":{"model":{"cats":{"enc":[],"feature_segments":[],"sorted_idx":[]},"gbtree_model_param":{"num_parallel_tree":"1","num_trees":"100"},"iteration_indptr":[0,1,2,3,4,5,6,7,8,9,10,11,12,13,14,15,16,17,18,19,20,21,22,23,24,25,26,27,28,29,30,31,32,33,34,35,36,37,38,39,40,41,42,43,44,45,46,47,48,49,50,51,52,53,54,55,56,57,58,59,60,61,62,63,64,65,66,67,68,69,70,71,72,73,74,75,76,77,78,79,80,81,82,83,84,85,86,87,88,89,90,91,92,93,94,95,96,97,98,99,100],"tree_info":[0,0,0,0,0,0,0,0,0,0,0,0,0,0,0,0,0,0,0,0,0,0,0,0,0,0,0,0,0,0,0,0,0,0,0,0,0,0,0,0,0,0,0,0,0,0,0,0,0,0,0,0,0,0,0,0,0,0,0,0,0,0,0,0,0,0,0,0,0,0,0,0,0,0,0,0,0,0,0,0,0,0,0,0,0,0,0,0,0,0,0,0,0,0,0,0,0,0,0,0],"trees":[{"base_weights":[-5.77875E-9,1.1482513E0,-1.3947732E0,-2.4706528E-1,1.6089282E0,-1.8618203E0,-6.449728E-2,8.722175E-1,-1.3343462E0,7.839077E-1,1.7085718E0,1.377486E-1,-1.9274772E0,-1.2460151E0,6.945709E-1,1.5092744E0,-4.4085425E-1,-1.7726846E0,1.1475784E-1,1.4513395E0,-1.0230318E0,1.7277657E0,-1.6666667E-1,1.7014419E-1,-1.8490566E-1,-1.9620695E0,6.12084E-1,-1.6995798E0,1.757534E-1,1.2078669E0,-1.214836E0,1.5837939E-1,-1.4285715E-1,1.6435042E-1,-1.9424461E-1,-1.9849625E-1,1.6570872E-1,-1.875E-1,1.2279548E-1,1.6059034E-1,-1.5789475E-1,-1.9183674E-1,1.4593765E-1,1.742292E-1,-1.5789475E-1,-1.1635162E-1,-1.9975194E-1,1.7646666E-1,-1.5789475E-1,-1.9792746E-1,9.0895005E-2,-1.8181819E-1,1.4366288E-1,1.6570872E-1,-1.939394E-1],"categories":[],"categories_nodes":[],"categories_segments":[],"categories_sizes":[],"default_left":[0,0,0,0,0,0,0,0,0,0,0,0,0,0,0,0,0,0,0,0,0,0,0,0,0,0,0,0,0,0,0,0,0,0,0,0,0,0,0,0,0,0,0,0,0,0,0,0,0,0,0,0,0,0,0],"id":0,"left_children":[1,3,5,7,9,11,13,15,17,19,21,23,25,27,29,31,33,35,37,39,41,43,-1,-1,-1,45,47,49,-1,51,53,-1,-1,-1,-1,-1,-1,-1,-1,-1,-1,-1,-1,-1,-1,-1,-1,-1,-1,-1,-1,-1,-1,-1,-1],"loss_changes":[4.230494E3,9.316615E2,7.409165E2,4.39847E2,8.821094E1,1.1615723E2,2.797611E2,1.4975154E2,1.1659985E2,1.4528249E2,6.579028E1,9.323311E1,7.6289795E1,1.6918237E2,1.8766095E2,2.8584137E1,1.8784055E2,1.05763306E2,9.864514E1,4.3511597E1,7.558623E1,4.9156006E1,0E0,0E0,0E0,2.1553955E1,3.37182E1,7.949957E1,0E0,1.06606155E2,8.800644E1,0E0,0E0,0E0,0E0,0E0,0E0,0E0,0E0,0E0,0E0,0E0,0E0,0E0,0E0,0E0,0E0,0E0,0E0,0E0,0E0,0E0,0E0,0E0,0E0],"parents":[2147483647,0,0,1,1,2,2,3,3,4,4,5,5,6,6,7,7,8,8,9,9,10,10,11,11,12,12,13,13,14,14,15,15,16,16,17,17,18,18,19,19,20,20,21,21,25,25,26,26,27,27,29,29,30,30],"right_children":[2,4,6,8,10,12,14,16,18,20,22,24,26,28,30,32,34,36,38,40,42,44,-1,-1,-1,46,48,50,-1,52,54,-1,-1,-1,-1,-1,-1,-1,-1,-1,-1,-1,-1,-1,-1,-1,-1,-1,-1,-1,-1,-1,-1,-1,-1],"split_conditions":[1.0545113E-2,6.203569E-1,6.2901266E-2,-8.982129E-1,8.940192E-1,-1.0282881E-1,1.7483309E-2,-9.5644027E-1,3.2469667E-2,-4.7276504E-3,3.6292836E-1,1.6673353E-2,2.0752654E0,2.3188535E-2,1.6415467E-2,1.0954311E0,-9.651617E-2,3.5727932E1,8.8495435E-3,-3.2099295E-1,-1.2944965E-1,2.2745671E0,-1.6666667E-1,1.7014419E-1,-1.8490566E-1,-8.438356E-1,-3.8670442E-1,9.088768E-1,1.757534E-1,-9.309028E-2,-4.4191352E-1,1.5837939E-1,-1.4285715E-1,1.6435042E-1,-1.9424461E-1,-1.9849625E-1,1.6570872E-1,-1.875E-1,1.2279548E-1,1.6059034E-1,-1.5789475E-1,-1.9183674E-1,1.4593765E-1,1.742292E-1,-1.5789475E-1,-1.1635162E-1,-1.9975194E-1,1.7646666E-1,-1.5789475E-1,-1.9792746E-1,9.0895005E-2,-1.8181819E-1,1.4366288E-1,1.6570872E-1,-1.939394E-1],"split_indices":[9,36,34,18,36,61,5,15,40,9,53,7,55,8,24,63,34,35,59,3,51,44,0,0,0,69,0,78,0,59,3,0,0,0,0,0,0,0,0,0,0,0,0,0,0,0,0,0,0,0,0,0,0,0,0],"split_type":[0,0,0,0,0,0,0,0,0,0,0,0,0,0,0,0,0,0,0,0,0,0,0,0,0,0,0,0,0,0,0,0,0,0,0,0,0,0,0,0,0,0,0,0,0,0,0,0,0,0,0,0,0,0,0],"sum_hessian":[2.6395E3,1.447784E3,1.191716E3,3.5947018E2,1.088314E3,8.817443E2,3.099716E2,1.7722585E2,1.8224432E2,1.18234375E2,9.700795E2,2.7997158E1,8.5374713E2,1.20995735E2,1.8897585E2,1.1923011E2,5.799574E1,1.3974858E2,4.249574E1,8.6485794E1,3.1748579E1,9.650795E2,5E0,1.5747159E1,1.225E1,8.424986E2,1.1248579E1,1.0549858E2,1.5497159E1,1.4922726E2,3.974858E1,1.1673011E2,2.5E0,2.4245739E1,3.375E1,1.32E2,7.7485795E0,1.5E1,2.7495739E1,8.2735794E1,3.75E0,2.35E1,8.248579E0,9.613295E2,3.75E0,3.724858E1,8.0525E2,7.4985795E0,3.75E0,9.55E1,9.998579E0,1E1,1.3922726E2,7.7485795E0,3.2E1],"tree_param":{"num_deleted":"0","num_feature":"95","num_nodes":"55","size_leaf_vector":"1"}},{"base_weights":[-3.1200072E-4,1.0413297E0,-1.2673266E0,-2.2458121E-1,1.4591467E0,-1.6927139E0,-5.8589898E-2,7.904786E-1,-1.2123649E0,7.1012795E-1,1.5496675E0,1.2439835E-1,-1.7524889E0,-1.1312032E0,6.2863785E-1,1.3672259E0,-4.0072805E-1,-1.6116345E0,1.0225414E-1,1.3148805E0,-9.298297E-1,1.5672556E0,-1.536952E-1,-1.711962E-1,1.5684138E-1,-1.7840173E0,5.5626565E-1,-1.5449779E0,1.6044371E-1,1.1994756E0,-8.3315897E-1,1.4347099E-1,-1.5005213E-1,1.4956746E-1,-1.770501E-1,-1.8061449E-1,1.5198533E-1,-1.7185132E-1,1.1164327E-1,1.4568116E-1,-1.4617147E-1,-1.7502746E-1,1.3357696E-1,1.5806597E-1,-1.6447903E-1,-1.0537996E-1,-1.8166552E-1,1.6204403E-1,-1.4617147E-1,-1.8013816E-1,8.2792856E-2,-1.6119081E-1,1.3742967E-1,7.790769E-2,-1.8646225E-1],"categories":[],"categories_nodes":[],"categories_segments":[],"categories_sizes":[],"default_left":[0,0,0,0,0,0,0,0,0,0,0,0,0,0,0,0,0,0,0,0,0,0,0,0,0,0,0,0,0,0,0,0,0,0,0,0,0,0,0,0,0,0,0,0,0,0,0,0,0,0,0,0,0,0,0],"id":1,"left_children":[1,3,5,7,9,11,13,15,17,19,21,23,25,27,29,31,33,35,37,39,41,43,-1,-1,-1,45,47,49,-1,51,53,-1,-1,-1,-1,-1,-1,-1,-1,-1,-1,-1,-1,-1,-1,-1,-1,-1,-1,-1,-1,-1,-1,-1,-1],"loss_changes":[3.4577415E3,7.608362E2,6.077108E2,3.595796E2,7.220581E1,9.518652E1,2.2830179E2,1.2215465E2,9.5518555E1,1.1866914E2,5.4729248E1,7.900094E1,6.2614746E1,1.3936053E2,1.5856482E2,2.5277023E1,1.5465263E2,8.765695E1,8.180415E1,3.6387787E1,6.273021E1,4.388086E1,0E0,0E0,0E0,1.7995605E1,2.8497543E1,6.570955E1,0E0,6.915924E1,9.061951E1,0E0,0E0,0E0,0E0,0E0,0E0,0E0,0E0,0E0,0E0,0E0,0E0,0E0,0E0,0E0,0E0,0E0,0E0,0E0,0E0,0E0,0E0,0E0,0E0],"parents":[2147483647,0,0,1,1,2,2,3,3,4,4,5,5,6,6,7,7,8,8,9,9,10,10,11,11,12,12,13,13,14,14,15,15,16,16,17,17,18,18,19,19,20,20,21,21,25,25,26,26,27,27,29,29,30,30],"right_children":[2,4,6,8,10,12,14,16,18,20,22,24,26,28,30,32,34,36,38,40,42,44,-1,-1,-1,46,48,50,-1,52,54,-1,-1,-1,-1,-1,-1,-1,-1,-1,-1,-1,-1,-1,-1,-1,-1,-1,-1,-1,-1,-1,-1,-1,-1],"split_conditions":[1.0545113E-2,6.203569E-1,6.2901266E-2,-8.982129E-1,8.940192E-1,-1.0282881E-1,1.7483309E-2,-9.5644027E-1,3.2469667E-2,-4.7276504E-3,3.6292836E-1,3.554432E-1,2.0752654E0,2.3188535E-2,-3.545056E-1,-8.149733E-3,-9.651617E-2,3.5727932E1,-9.658714E-2,-3.2099295E-1,-1.2944965E-1,1.6225508E0,-1.536952E-1,-1.711962E-1,1.5684138E-1,-8.438356E-1,-3.8670442E-1,9.088768E-1,1.6044371E-1,-1.03447E-1,-2.4197793E-2,1.4347099E-1,-1.5005213E-1,1.4956746E-1,-1.770501E-1,-1.8061449E-1,1.5198533E-1,-1.7185132E-1,1.1164327E-1,1.4568116E-1,-1.4617147E-1,-1.7502746E-1,1.3357696E-1,1.5806597E-1,-1.6447903E-1,-1.0537996E-1,-1.8166552E-1,1.6204403E-1,-1.4617147E-1,-1.8013816E-1,8.2792856E-2,-1.6119081E-1,1.3742967E-1,7.790769E-2,-1.8646225E-1],"split_indices":[9,36,34,18,36,61,5,15,40,9,53,39,55,8,73,74,34,35,65,3,51,54,0,0,0,69,0,78,0,59,68,0,0,0,0,0,0,0,0,0,0,0,0,0,0,0,0,0,0,0,0,0,0,0,0],"split_type":[0,0,0,0,0,0,0,0,0,0,0,0,0,0,0,0,0,0,0,0,0,0,0,0,0,0,0,0,0,0,0,0,0,0,0,0,0,0,0,0,0,0,0,0,0,0,0,0,0,0,0,0,0,0,0],"sum_hessian":[2.617947E3,1.4368542E3,1.1810928E3,3.5666998E2,1.0801843E3,8.733402E2,3.0775256E2,1.7600482E2,1.8066518E2,1.1742131E2,9.62763E2,2.7779627E1,8.455606E2,1.1992681E2,1.8782576E2,1.18488434E2,5.7516384E1,1.384039E2,4.226128E1,8.593138E1,3.1489927E1,9.5779755E2,4.965438E0,1.2146858E1,1.5632768E1,8.343934E2,1.1167228E1,1.0454871E2,1.53780985E1,1.352065E2,5.2619263E1,1.1625249E2,2.235949E0,2.4082748E1,3.3433636E1,1.3070827E2,7.695629E0,1.4870177E1,2.7391104E1,8.220466E1,3.7267241E0,2.3285112E1,8.204816E0,9.5432294E2,3.4745803E0,3.71228E1,7.9727057E2,7.4405036E0,3.7267241E0,9.4570755E1,9.977956E0,7.4341364E0,1.2777237E2,2.0625353E1,3.1993908E1],"tree_param":{"num_deleted":"0","num_feature":"95","num_nodes":"55","size_leaf_vector":"1"}},{"base_weights":[-7.9826906E-4,9.564733E-1,-1.1690618E0,-2.071473E-1,1.3402576E0,-1.5645173E0,-5.4262128E-2,7.242776E-1,-1.11826E0,6.507993E-1,1.423699E0,1.1357182E-1,-1.6200476E0,-1.0428497E0,5.7284534E-1,1.2505714E0,-3.6962104E-1,-1.4897385E0,9.1622695E-2,1.2043463E0,-8.570355E-1,1.4395154E0,-1.560359E-1,-1.5858823E-1,1.4464922E-1,-1.6493406E0,5.115539E-1,-1.4264513E0,1.4833006E-1,1.0150988E0,-1.0807762E0,1.3211502E-1,-1.42901E-1,1.3765135E-1,-1.6395673E-1,-1.6713478E-1,1.4090167E-1,9.7359896E-2,-1.7102051E-1,-1.6119814E-1,1.332572E-1,-1.6215535E-1,1.2328955E-1,1.4535205E-1,-1.3902931E-1,-1.684423E-1,-1.0147212E-1,1.5061623E-1,-1.365262E-1,-1.6791312E-1,6.653398E-2,-1.5694474E-1,1.20896436E-1,-1.7170833E-1,1.438441E-1],"categories":[],"categories_nodes":[],"categories_segments":[],"categories_sizes":[],"default_left":[0,0,0,0,0,0,0,0,0,0,0,0,0,0,0,0,0,0,0,0,0,0,0,0,0,0,0,0,0,0,0,0,0,0,0,0,0,0,0,0,0,0,0,0,0,0,0,0,0,0,0,0,0,0,0],"id":2,"left_children":[1,3,5,7,9,11,13,15,17,19,21,23,25,27,29,31,33,35,37,39,41,43,-1,-1,-1,45,47,49,-1,51,53,-1,-1,-1,-1,-1,-1,-1,-1,-1,-1,-1,-1,-1,-1,-1,-1,-1,-1,-1,-1,-1,-1,-1,-1],"loss_changes":[2.8684863E3,6.298534E2,5.0917322E2,2.9826895E2,6.006958E1,7.963818E1,1.8875977E2,1.0059734E2,7.995027E1,9.8108185E1,4.6844604E1,6.6278244E1,5.2382812E1,1.1661519E2,1.3738133E2,2.4140274E1,1.292554E2,7.391135E1,6.9456085E1,3.3020737E1,5.283486E1,3.9294067E1,0E0,0E0,0E0,1.6423584E1,2.4367893E1,5.5606125E1,0E0,7.5826294E1,6.6280525E1,0E0,0E0,0E0,0E0,0E0,0E0,0E0,0E0,0E0,0E0,0E0,0E0,0E0,0E0,0E0,0E0,0E0,0E0,0E0,0E0,0E0,0E0,0E0,0E0],"parents":[2147483647,0,0,1,1,2,2,3,3,4,4,5,5,6,6,7,7,8,8,9,9,10,10,11,11,12,12,13,13,14,14,15,15,16,16,17,17,18,18,19,19,20,20,21,21,25,25,26,26,27,27,29,29,30,30],"right_children":[2,4,6,8,10,12,14,16,18,20,22,24,26,28,30,32,34,36,38,40,42,44,-1,-1,-1,46,48,50,-1,52,54,-1,-1,-1,-1,-1,-1,-1,-1,-1,-1,-1,-1,-1,-1,-1,-1,-1,-1,-1,-1,-1,-1,-1,-1],"split_conditions":[1.0545113E-2,6.203569E-1,6.2901266E-2,-8.982129E-1,8.940192E-1,-1.0282881E-1,1.7483309E-2,-9.5644027E-1,3.2469667E-2,-4.7276504E-3,2.2745671E0,3.554432E-1,2.0752654E0,2.3188535E-2,1.6415467E-2,1.0954311E0,-9.651617E-2,3.5727932E1,-6.5345965E-2,1.9197303E-1,-1.2944965E-1,3.6292836E-1,-1.560359E-1,-1.5858823E-1,1.4464922E-1,1.2373075E-1,-3.8670442E-1,2.2022146E-1,1.4833006E-1,-9.309028E-2,3.7389567E-1,1.3211502E-1,-1.42901E-1,1.3765135E-1,-1.6395673E-1,-1.6713478E-1,1.4090167E-1,9.7359896E-2,-1.7102051E-1,-1.6119814E-1,1.332572E-1,-1.6215535E-1,1.2328955E-1,1.4535205E-1,-1.3902931E-1,-1.684423E-1,-1.0147212E-1,1.5061623E-1,-1.365262E-1,-1.6791312E-1,6.653398E-2,-1.5694474E-1,1.20896436E-1,-1.7170833E-1,1.438441E-1],"split_indices":[9,36,34,18,36,61,5,15,40,9,44,39,55,8,24,63,34,35,91,39,51,53,0,0,0,87,0,51,0,59,30,0,0,0,0,0,0,0,0,0,0,0,0,0,0,0,0,0,0,0,0,0,0,0,0],"split_type":[0,0,0,0,0,0,0,0,0,0,0,0,0,0,0,0,0,0,0,0,0,0,0,0,0,0,0,0,0,0,0,0,0,0,0,0,0,0,0,0,0,0,0,0,0,0,0,0,0,0,0,0,0,0,0],"sum_hessian":[2.5629377E3,1.4087739E3,1.1541638E3,3.4951547E2,1.0592585E3,8.51652E2,3.0251184E2,1.7293262E2,1.7658287E2,1.15306404E2,9.439521E2,2.7246172E1,8.244058E2,1.1715806E2,1.8535378E2,1.166615E2,5.6271114E1,1.3492473E2,4.165815E1,8.4490166E1,3.0816235E1,9.394902E2,4.461928E0,1.1892995E1,1.5353176E1,8.1345337E2,1.0952442E1,1.0209068E2,1.5067373E1,1.4654668E2,3.8807102E1,1.141615E2,2.4999998E0,2.3658094E1,3.261302E1,1.27368416E2,7.556307E0,2.8276669E1,1.338148E1,3.1753695E0,8.13148E1,2.2726692E1,8.089542E0,9.3534735E2,4.1427927E0,7.69273E2,4.4180344E1,7.2878017E0,3.6646407E0,9.126367E1,1.0827011E1,9.730294E0,1.3681639E2,3.1235903E1,7.5711975E0],"tree_param":{"num_deleted":"0","num_feature":"95","num_nodes":"55","size_leaf_vector":"1"}},{"base_weights":[-1.3472891E-3,8.8669586E-1,-1.0908331E0,-1.9307199E-1,1.2426268E0,-1.4638128E0,-5.0741322E-2,6.6945004E-1,-1.0415479E0,6.0037345E-1,1.3206501E0,1.04644105E-1,-1.5161082E0,-9.7113353E-1,5.2666825E-1,1.1530981E0,-3.4470952E-1,-1.3943692E0,8.151772E-2,1.1093007E0,-7.9835844E-1,1.3356631E0,-1.5977852E-1,1.3595401E-1,-1.5014626E-1,-1.544003E0,4.708521E-1,-1.3302743E0,1.3845214E-1,1.0277648E0,-7.5649637E-1,1.2154961E-1,-1.6689709E-1,1.2775251E-1,-1.536652E-1,-1.5663464E-1,1.317131E-1,-1.5830149E-1,9.5076084E-2,1.2415117E-1,-1.3934636E-1,-1.538382E-1,1.12718955E-1,1.3484207E-1,-1.4246133E-1,-8.472273E-2,-1.5768501E-1,1.4132005E-1,-1.2423654E-1,-1.567105E-1,7.4685946E-2,-1.4064465E-1,1.1766273E-1,-1.711353E-1,6.4182304E-2],"categories":[],"categories_nodes":[],"categories_segments":[],"categories_sizes":[],"default_left":[0,0,0,0,0,0,0,0,0,0,0,0,0,0,0,0,0,0,0,0,0,0,0,0,0,0,0,0,0,0,0,0,0,0,0,0,0,0,0,0,0,0,0,0,0,0,0,0,0,0,0,0,0,0,0],"id":3,"left_children":[1,3,5,7,9,11,13,15,17,19,21,23,25,27,29,31,33,35,37,39,41,43,-1,-1,-1,45,47,49,-1,51,53,-1,-1,-1,-1,-1,-1,-1,-1,-1,-1,-1,-1,-1,-1,-1,-1,-1,-1,-1,-1,-1,-1,-1,-1],"loss_changes":[2.4060415E3,5.267936E2,4.3315247E2,2.4990633E2,5.0848755E1,6.757776E1,1.5771417E2,8.3524574E1,6.828842E1,8.16576E1,4.235974E1,5.7380074E1,4.4818237E1,9.861303E1,1.18070435E2,2.2275833E1,1.092672E2,6.3140274E1,6.2383266E1,2.9397545E1,4.5697212E1,3.4104492E1,0E0,0E0,0E0,1.662378E1,2.077332E1,5.024678E1,0E0,4.934587E1,7.027056E1,0E0,0E0,0E0,0E0,0E0,0E0,0E0,0E0,0E0,0E0,0E0,0E0,0E0,0E0,0E0,0E0,0E0,0E0,0E0,0E0,0E0,0E0,0E0,0E0],"parents":[2147483647,0,0,1,1,2,2,3,3,4,4,5,5,6,6,7,7,8,8,9,9,10,10,11,11,12,12,13,13,14,14,15,15,16,16,17,17,18,18,19,19,20,20,21,21,25,25,26,26,27,27,29,29,30,30],"right_children":[2,4,6,8,10,12,14,16,18,20,22,24,26,28,30,32,34,36,38,40,42,44,-1,-1,-1,46,48,50,-1,52,54,-1,-1,-1,-1,-1,-1,-1,-1,-1,-1,-1,-1,-1,-1,-1,-1,-1,-1,-1,-1,-1,-1,-1,-1],"split_conditions":[1.0545113E-2,6.203569E-1,6.2901266E-2,-8.982129E-1,8.940192E-1,-1.0282881E-1,1.7483309E-2,-9.5644027E-1,3.2469667E-2,-4.7276504E-3,1.6225508E0,1.6673353E-2,-2.211531E-2,2.3188535E-2,-3.545056E-1,-2.5111292E-3,-9.651617E-2,3.5727932E1,-2.0366886E-1,-3.2099295E-1,-3.213013E-1,2.2745671E0,-1.5977852E-1,1.3595401E-1,-1.5014626E-1,-8.438356E-1,-3.8670442E-1,9.088768E-1,1.3845214E-1,-1.03447E-1,1.01631425E-1,1.2154961E-1,-1.6689709E-1,1.2775251E-1,-1.536652E-1,-1.5663464E-1,1.317131E-1,-1.5830149E-1,9.5076084E-2,1.2415117E-1,-1.3934636E-1,-1.538382E-1,1.12718955E-1,1.3484207E-1,-1.4246133E-1,-8.472273E-2,-1.5768501E-1,1.4132005E-1,-1.2423654E-1,-1.567105E-1,7.4685946E-2,-1.4064465E-1,1.1766273E-1,-1.711353E-1,6.4182304E-2],"split_indices":[9,36,34,18,36,61,5,15,40,9,54,7,20,8,73,40,34,35,43,3,21,44,0,0,0,69,0,78,0,59,69,0,0,0,0,0,0,0,0,0,0,0,0,0,0,0,0,0,0,0,0,0,0,0,0],"split_type":[0,0,0,0,0,0,0,0,0,0,0,0,0,0,0,0,0,0,0,0,0,0,0,0,0,0,0,0,0,0,0,0,0,0,0,0,0,0,0,0,0,0,0,0,0,0,0,0,0,0,0,0,0,0,0],"sum_hessian":[2.4848381E3,1.3690818E3,1.1157565E3,3.39529E2,1.0295527E3,8.209531E2,2.9480334E2,1.6847548E2,1.7105351E2,1.1246724E2,9.170855E2,2.645664E1,7.9449646E2,1.1338519E2,1.8141815E2,1.13981316E2,5.449416E1,1.2997812E2,4.1075397E1,8.261483E1,2.985241E1,9.129315E2,4.15398E0,1.4938383E1,1.1518258E1,7.837168E2,1.0779638E1,9.8763145E1,1.4622046E1,1.3061134E2,5.0806805E1,1.120726E2,1.9087156E0,2.3050547E1,3.1443613E1,1.2262308E2,7.355044E0,1.3809721E1,2.7265676E1,7.894826E1,3.6665742E0,2.1709946E1,8.142464E0,9.0924066E2,3.6908588E0,3.6488575E1,7.472283E2,7.0673757E0,3.7122622E0,8.8875305E1,9.887841E0,7.040271E0,1.23571075E2,3.0057718E1,2.0749084E1],"tree_param":{"num_deleted":"0","num_feature":"95","num_nodes":"55","size_leaf_vector":"1"}},{"base_weights":[-1.9824342E-3,8.2774955E-1,-1.0267198E0,-1.8152109E-1,1.1601292E0,-1.3828974E0,-4.8031006E-2,6.2195635E-1,-9.7905093E-1,1.1997159E0,2.4839062E-2,9.699404E-2,-1.4327242E0,7.4151975E-1,-6.427925E-1,1.0675845E0,-3.2422784E-1,-1.3178164E0,7.292026E-2,1.2677319E0,6.3806444E-1,-2.0694189E-1,9.6987844E-1,-1.4175887E-1,1.2741542E-1,-1.4592677E0,4.4111186E-1,9.6135116E-1,-1.638168E-1,-1.1887262E0,6.880868E-1,1.1354772E-1,-1.5835635E-1,1.1932001E-1,-1.4537303E-1,1.2051866E-1,-1.4850095E-1,-1.4748622E-1,9.042662E-2,1.2833378E-1,-1.3658538E-1,1.0831918E-1,-6.964206E-2,1.2675883E-1,-1.7466958E-1,-7.7831544E-2,-1.4924143E-1,1.3359033E-1,-1.17985606E-1,-1.3937247E-1,1.15205385E-1,1.3397706E-1,-1.3576898E-1,1.1380489E-1,-1.4582704E-1],"categories":[],"categories_nodes":[],"categories_segments":[],"categories_sizes":[],"default_left":[0,0,0,0,0,0,0,0,0,0,0,0,0,0,0,0,0,0,0,0,0,0,0,0,0,0,0,0,0,0,0,0,0,0,0,0,0,0,0,0,0,0,0,0,0,0,0,0,0,0,0,0,0,0,0],"id":4,"left_children":[1,3,5,7,9,11,13,15,17,19,21,23,25,27,29,31,33,35,37,39,41,-1,43,-1,-1,45,47,49,-1,51,53,-1,-1,-1,-1,-1,-1,-1,-1,-1,-1,-1,-1,-1,-1,-1,-1,-1,-1,-1,-1,-1,-1,-1,-1],"loss_changes":[2.035159E3,4.4390436E2,3.7325E2,2.1113289E2,4.4692627E1,5.8034668E1,1.3515231E2,6.960936E1,5.8992157E1,3.5923706E1,7.0388054E1,4.9072773E1,3.8426758E1,6.627693E1,1.2005483E2,2.1940498E1,9.319423E1,5.4544342E1,5.435287E1,3.696167E1,6.3648415E1,0E0,2.2019026E1,0E0,0E0,1.5750122E1,1.8079306E1,5.2739403E1,0E0,5.1692673E1,4.8374237E1,0E0,0E0,0E0,0E0,0E0,0E0,0E0,0E0,0E0,0E0,0E0,0E0,0E0,0E0,0E0,0E0,0E0,0E0,0E0,0E0,0E0,0E0,0E0,0E0],"parents":[2147483647,0,0,1,1,2,2,3,3,4,4,5,5,6,6,7,7,8,8,9,9,10,10,11,11,12,12,13,13,14,14,15,15,16,16,17,17,18,18,19,19,20,20,22,22,25,25,26,26,27,27,29,29,30,30],"right_children":[2,4,6,8,10,12,14,16,18,20,22,24,26,28,30,32,34,36,38,40,42,-1,44,-1,-1,46,48,50,-1,52,54,-1,-1,-1,-1,-1,-1,-1,-1,-1,-1,-1,-1,-1,-1,-1,-1,-1,-1,-1,-1,-1,-1,-1,-1],"split_conditions":[1.0545113E-2,6.203569E-1,6.2901266E-2,-8.982129E-1,6.163341E-1,-1.0282881E-1,-2.0648232E-2,-9.5644027E-1,3.2469667E-2,-8.940192E-1,6.648478E-1,3.554432E-1,-2.211531E-2,-1.6817858E-2,6.371789E-2,-8.149733E-3,-9.651617E-2,-6.93572E-1,-9.658714E-2,3.6292836E-1,-4.7276504E-3,-2.0694189E-1,-2.4146844E-2,-1.4175887E-1,1.2741542E-1,-8.438356E-1,-3.8670442E-1,-8.373478E-2,-1.638168E-1,-1.0462685E0,-6.1369973E-1,1.1354772E-1,-1.5835635E-1,1.1932001E-1,-1.4537303E-1,1.2051866E-1,-1.4850095E-1,-1.4748622E-1,9.042662E-2,1.2833378E-1,-1.3658538E-1,1.0831918E-1,-6.964206E-2,1.2675883E-1,-1.7466958E-1,-7.7831544E-2,-1.4924143E-1,1.3359033E-1,-1.17985606E-1,-1.3937247E-1,1.15205385E-1,1.3397706E-1,-1.3576898E-1,1.1380489E-1,-1.4582704E-1],"split_indices":[9,36,34,18,28,61,8,15,40,37,78,39,20,74,1,74,34,43,65,53,9,0,8,0,0,69,0,59,0,21,73,0,0,0,0,0,0,0,0,0,0,0,0,0,0,0,0,0,0,0,0,0,0,0,0],"split_type":[0,0,0,0,0,0,0,0,0,0,0,0,0,0,0,0,0,0,0,0,0,0,0,0,0,0,0,0,0,0,0,0,0,0,0,0,0,0,0,0,0,0,0,0,0,0,0,0,0,0,0,0,0,0,0],"sum_hessian":[2.3915806E3,1.3216389E3,1.0699417E3,3.2753445E2,9.941045E2,7.841501E2,2.8579147E2,1.6326851E2,1.6426593E2,9.605539E2,3.3550568E1,2.5510952E1,7.5863916E2,1.2268259E2,1.6310889E2,1.1090624E2,5.236226E1,1.2406173E2,4.020421E1,8.556745E2,1.0487944E2,1.0062269E1,2.3488298E1,1.1067196E1,1.4443756E1,7.4826105E2,1.0378111E1,1.1285341E2,9.829182E0,1.15738976E2,4.7369915E1,1.0869441E2,2.2118275E0,2.2320045E1,3.0042215E1,7.3244753E0,1.1673726E2,1.3778192E1,2.6426016E1,8.5114355E2,4.530908E0,7.878757E1,2.609187E1,2.164915E1,1.8391473E0,3.5868587E1,7.1239246E2,6.8001933E0,3.5779173E0,7.981224E0,1.04872185E2,6.815622E0,1.08923355E2,3.9548706E1,7.821209E0],"tree_param":{"num_deleted":"0","num_feature":"95","num_nodes":"55","size_leaf_vector":"1"}},{"base_weights":[-2.6235704E-3,7.7644384E-1,-9.7219664E-1,-1.7182931E-1,1.0879401E0,-1.2616664E0,1.3418937E-1,5.8070326E-1,-9.267812E-1,1.2212738E0,7.5663155E-1,-1.3471935E0,-3.4478885E-1,5.6608546E-1,-1.128553E0,9.929088E-1,-3.07012E-1,-1.2545545E0,6.544559E-2,1.2304387E0,-1.6603802E-1,8.807602E-1,-2.0851371E0,-1.3718623E0,6.1873776E-1,-1.467679E-1,3.5424677E-1,1.0621697E0,-3.9015877E-1,-1.500058E-1,7.706906E-1,-1.8287511E-1,1.0581529E-1,1.1198087E-1,-1.3855612E-1,-1.4145981E-1,1.1790389E-1,8.181612E-2,-1.5314789E-1,1.2387367E-1,-1.7037688E-1,1.0002561E-1,-1.866288E-1,-1.07701086E-1,-2.298115E-1,6.839411E-3,-1.3971502E-1,1.2704107E-1,-1.0204983E-1,-1.3808633E-1,8.312373E-2,-1.5627089E-1,1.19119704E-1,1.0066449E-1,-1.5198837E-1,1.2384844E-1,-8.960925E-2],"categories":[],"categories_nodes":[],"categories_segments":[],"categories_sizes":[],"default_left":[0,0,0,0,0,0,0,0,0,0,0,0,0,0,0,0,0,0,0,0,0,0,0,0,0,0,0,0,0,0,0,0,0,0,0,0,0,0,0,0,0,0,0,0,0,0,0,0,0,0,0,0,0,0,0,0,0],"id":5,"left_children":[1,3,5,7,9,11,13,15,17,19,21,23,25,27,29,31,33,35,37,39,-1,41,43,45,47,-1,49,51,53,-1,55,-1,-1,-1,-1,-1,-1,-1,-1,-1,-1,-1,-1,-1,-1,-1,-1,-1,-1,-1,-1,-1,-1,-1,-1,-1,-1],"loss_changes":[1.7316691E3,3.7565778E2,3.272788E2,1.795938E2,4.1349365E1,6.3026978E1,1.1664723E2,5.8285828E1,5.137564E1,2.002124E1,9.963074E1,3.6748047E1,5.5799625E1,7.5919846E1,3.9642776E1,2.1899124E1,8.004925E1,4.7861526E1,4.9470703E1,1.8646118E1,0E0,8.9295105E1,7.991791E-2,2.6732788E1,1.1832134E1,0E0,3.7737522E1,3.744599E1,8.84772E1,0E0,8.583033E0,0E0,0E0,0E0,0E0,0E0,0E0,0E0,0E0,0E0,0E0,0E0,0E0,0E0,0E0,0E0,0E0,0E0,0E0,0E0,0E0,0E0,0E0,0E0,0E0,0E0,0E0],"parents":[2147483647,0,0,1,1,2,2,3,3,4,4,5,5,6,6,7,7,8,8,9,9,10,10,11,11,12,12,13,13,14,14,15,15,16,16,17,17,18,18,19,19,21,21,22,22,23,23,24,24,26,26,27,27,28,28,30,30],"right_children":[2,4,6,8,10,12,14,16,18,20,22,24,26,28,30,32,34,36,38,40,-1,42,44,46,48,-1,50,52,54,-1,56,-1,-1,-1,-1,-1,-1,-1,-1,-1,-1,-1,-1,-1,-1,-1,-1,-1,-1,-1,-1,-1,-1,-1,-1,-1,-1],"split_conditions":[1.0545113E-2,6.203569E-1,2.7605233E-1,-8.982129E-1,-2.3209715E-2,1.21979855E-1,1.6415467E-2,-9.5644027E-1,3.2469667E-2,-5.5354398E-2,5.159367E-1,-2.211531E-2,1.1066759E-1,-2.1904318E-2,3.9482117E-1,-5.0416682E-2,-9.651617E-2,3.5727932E1,-6.5345965E-2,-1.1881005E-1,-1.6603802E-1,-1.9897112E-1,8.042847E-1,-5.603812E-1,-3.8670442E-1,-1.467679E-1,-2.707349E-1,-3.515422E-2,-2.1085558E-2,-1.500058E-1,-2.2147637E-2,-1.8287511E-1,1.0581529E-1,1.1198087E-1,-1.3855612E-1,-1.4145981E-1,1.1790389E-1,8.181612E-2,-1.5314789E-1,1.2387367E-1,-1.7037688E-1,1.0002561E-1,-1.866288E-1,-1.07701086E-1,-2.298115E-1,6.839411E-3,-1.3971502E-1,1.2704107E-1,-1.0204983E-1,-1.3808633E-1,8.312373E-2,-1.5627089E-1,1.19119704E-1,1.0066449E-1,-1.5198837E-1,1.2384844E-1,-8.960925E-2],"split_indices":[9,36,39,18,8,34,24,15,40,2,28,20,31,61,30,68,34,35,91,67,0,60,36,0,0,0,2,72,8,0,8,0,0,0,0,0,0,0,0,0,0,0,0,0,0,0,0,0,0,0,0,0,0,0,0,0,0],"split_type":[0,0,0,0,0,0,0,0,0,0,0,0,0,0,0,0,0,0,0,0,0,0,0,0,0,0,0,0,0,0,0,0,0,0,0,0,0,0,0,0,0,0,0,0,0,0,0,0,0,0,0,0,0,0,0,0,0],"sum_hessian":[2.2905005E3,1.27013E3,1.0203704E3,3.141689E2,9.5596106E2,8.086568E2,2.1171362E2,1.5745215E2,1.5671678E2,6.797232E2,2.7623782E2,7.3923145E2,6.942536E1,1.5816733E2,5.3546307E1,1.0744307E2,5.000907E1,1.1760321E2,3.9113564E1,6.781394E2,1.5837929E0,2.6533792E2,1.0899912E1,7.3036884E2,8.862603E0,2.6215202E1,4.3210155E1,1.04067825E2,5.40995E1,4.4961678E1,8.584627E0,1.8173537E0,1.0562572E2,2.1512188E1,2.8496883E1,1.1073925E2,6.8639646E0,2.6914833E1,1.219873E1,6.768032E2,1.3361816E0,2.548863E2,1.0451608E1,2.9575107E0,7.9424014E0,1.2573057E1,7.177958E2,6.502539E0,2.3600645E0,8.90871E0,3.430145E1,4.3552384E0,9.9712585E1,2.423904E1,2.9860456E1,6.903949E0,1.6806779E0],"tree_param":{"num_deleted":"0","num_feature":"95","num_nodes":"57","size_leaf_vector":"1"}},{"base_weights":[-3.5657678E-3,7.2970885E-1,-9.249978E-1,-8.857946E-3,1.0950533E0,-1.2609568E0,-4.035564E-2,6.3184255E-1,-7.851706E-1,1.1101992E0,-1.5458868E-1,8.5225604E-2,-1.3073318E0,6.480518E-1,-5.664177E-1,7.6126534E-1,-1.5043066E-1,-7.02996E-2,-1.2457534E0,1.1231496E0,-1.4030135E-1,1.1638142E-1,-1.3176933E-1,-1.3318512E0,4.1068026E-1,8.4994864E-1,-1.6299401E-1,-1.0643541E0,6.200748E-1,9.3927495E-2,-4.1120704E-2,-1.4012513E-1,4.861554E-2,1.0870172E-1,-1.4074384E-1,-2.0390642E-1,1.1323761E-1,-1.3728671E-1,-6.365232E-2,1.2139956E-1,-1.0831489E-1,-1.4260875E-1,1.0098968E-1,1.2360102E-1,-1.2198036E-1,1.0031966E-1,-1.4499874E-1],"categories":[],"categories_nodes":[],"categories_segments":[],"categories_sizes":[],"default_left":[0,0,0,0,0,0,0,0,0,0,0,0,0,0,0,0,0,0,0,0,0,0,0,0,0,0,0,0,0,0,0,0,0,0,0,0,0,0,0,0,0,0,0,0,0,0,0],"id":6,"left_children":[1,3,5,7,9,11,13,15,17,19,-1,21,23,25,27,29,-1,31,33,35,-1,-1,-1,37,39,41,-1,43,45,-1,-1,-1,-1,-1,-1,-1,-1,-1,-1,-1,-1,-1,-1,-1,-1,-1,-1],"loss_changes":[1.4788396E3,3.2888147E2,2.882126E2,2.0161888E2,3.4333435E1,4.399463E1,9.741992E1,6.2543938E1,6.0257782E1,2.7983826E1,0E0,3.8375774E1,2.917395E1,5.4989628E1,9.0722984E1,4.4228386E1,0E0,5.4652817E1,4.354831E1,2.5876526E1,0E0,0E0,0E0,1.8241333E1,1.3707195E1,4.065531E1,0E0,4.003708E1,3.7695297E1,0E0,0E0,0E0,0E0,0E0,0E0,0E0,0E0,0E0,0E0,0E0,0E0,0E0,0E0,0E0,0E0,0E0,0E0],"parents":[2147483647,0,0,1,1,2,2,3,3,4,4,5,5,6,6,7,7,8,8,9,9,11,11,12,12,13,13,14,14,15,15,17,17,18,18,19,19,23,23,24,24,25,25,27,27,28,28],"right_children":[2,4,6,8,10,12,14,16,18,20,-1,22,24,26,28,30,-1,32,34,36,-1,-1,-1,38,40,42,-1,44,46,-1,-1,-1,-1,-1,-1,-1,-1,-1,-1,-1,-1,-1,-1,-1,-1,-1,-1],"split_conditions":[1.0545113E-2,8.940192E-1,6.2901266E-2,-8.982129E-1,1.6225508E0,-1.0282881E-1,-2.0648232E-2,-4.7203302E-1,-6.197183E-2,2.2745671E0,-1.5458868E-1,1.6673353E-2,2.0752654E0,2.2725752E-2,6.371789E-2,-1.5323441E-2,-1.5043066E-1,1.6313005E-2,-6.93572E-1,-2.5584168E0,-1.4030135E-1,1.1638142E-1,-1.3176933E-1,1.2373075E-1,-3.8670442E-1,-1.8772818E-1,-1.6299401E-1,-1.0462685E0,7.8293875E-2,9.3927495E-2,-4.1120704E-2,-1.4012513E-1,4.861554E-2,1.0870172E-1,-1.4074384E-1,-2.0390642E-1,1.1323761E-1,-1.3728671E-1,-6.365232E-2,1.2139956E-1,-1.0831489E-1,-1.4260875E-1,1.0098968E-1,1.2360102E-1,-1.2198036E-1,1.0031966E-1,-1.4499874E-1],"split_indices":[9,36,34,18,54,61,8,15,91,44,0,7,55,5,1,61,0,59,43,19,0,0,0,87,0,51,0,21,49,0,0,0,0,0,0,0,0,0,0,0,0,0,0,0,0,0,0],"split_type":[0,0,0,0,0,0,0,0,0,0,0,0,0,0,0,0,0,0,0,0,0,0,0,0,0,0,0,0,0,0,0,0,0,0,0,0,0,0,0,0,0,0,0,0,0,0,0],"sum_hessian":[2.1867253E3,1.2178053E3,9.689201E2,4.033612E2,8.1444415E2,7.0192566E2,2.6699445E2,2.2108395E2,1.8227724E2,8.103762E2,4.0678935E0,2.3347672E1,6.78578E2,1.1555141E2,1.5144304E2,2.090612E2,1.20227585E1,7.187406E1,1.1040318E2,8.067721E2,3.6041481E0,1.3295948E1,1.0051724E1,6.692512E2,9.326746E0,1.0671979E2,8.831615E0,1.0674726E2,4.4695774E1,1.8167712E2,2.7384071E1,2.0742687E1,5.1131374E1,6.7851315E0,1.0361805E2,1.7070532E0,8.0506506E2,6.3105237E2,3.8198864E1,6.186985E0,3.139761E0,6.487515E0,1.0023228E2,6.3169494E0,1.0043031E2,3.815038E1,6.5453963E0],"tree_param":{"num_deleted":"0","num_feature":"95","num_nodes":"47","size_leaf_vector":"1"}},{"base_weights":[-4.3925648E-3,-7.022316E-1,8.754249E-1,2.1794158E-1,-1.1368948E0,1.0043192E0,-2.1039183E-1,1.0179734E0,-1.4527796E-1,-1.2498926E0,-3.3182535E-1,1.1477667E0,6.638785E-1,9.510246E-1,-6.9130576E-1,1.155217E0,-1.7371757E-1,-8.7966156E-1,5.99302E-1,-1.2719046E0,5.218646E-1,4.5178497E-1,-1.0933653E0,1.1594788E0,-1.470087E-1,7.9584104E-1,-1.7240666E-1,-1.24418736E-1,1.1629424E0,-1.4499526E-1,2.8870255E-1,1.21044986E-1,-1.4079088E-1,2.0986103E-2,-1.5855968E-1,-1.3381927E-1,7.643333E-2,-5.1496863E-2,-1.3082539E-1,1.1646747E-1,-9.548857E-2,9.850216E-2,-1.413684E-1,1.1840036E-1,-1.4283924E-1,-1.4613807E-1,1.1680677E-1,8.790887E-2,-1.8706848E-1,1.2897502E-1,-8.116718E-2,-1.24980845E-1,1.04375295E-1],"categories":[],"categories_nodes":[],"categories_segments":[],"categories_sizes":[],"default_left":[0,0,0,0,0,0,0,0,0,0,0,0,0,0,0,0,0,0,0,0,0,0,0,0,0,0,0,0,0,0,0,0,0,0,0,0,0,0,0,0,0,0,0,0,0,0,0,0,0,0,0,0,0],"id":7,"left_children":[1,3,5,7,9,11,13,15,17,19,21,23,25,27,29,31,-1,33,35,37,39,41,43,45,-1,47,-1,-1,49,-1,51,-1,-1,-1,-1,-1,-1,-1,-1,-1,-1,-1,-1,-1,-1,-1,-1,-1,-1,-1,-1,-1,-1],"loss_changes":[1.2800668E3,4.652832E2,1.2927936E2,1.0878595E2,7.143695E1,3.950403E1,5.5776108E1,4.619464E1,1.4160188E2,2.7661743E1,5.931909E1,1.9448486E1,7.914362E1,1.5085672E1,5.2733932E1,1.7547928E1,0E0,1.0054538E2,4.217557E1,1.814746E1,9.849197E0,5.042453E1,4.0057125E1,1.4688843E1,0E0,5.3712616E1,0E0,0E0,7.871044E0,0E0,3.7939896E1,0E0,0E0,0E0,0E0,0E0,0E0,0E0,0E0,0E0,0E0,0E0,0E0,0E0,0E0,0E0,0E0,0E0,0E0,0E0,0E0,0E0,0E0],"parents":[2147483647,0,0,1,1,2,2,3,3,4,4,5,5,6,6,7,7,8,8,9,9,10,10,11,11,12,12,13,13,14,14,15,15,17,17,18,18,19,19,20,20,21,21,22,22,23,23,25,25,28,28,30,30],"right_children":[2,4,6,8,10,12,14,16,18,20,22,24,26,28,30,32,-1,34,36,38,40,42,44,46,-1,48,-1,-1,50,-1,52,-1,-1,-1,-1,-1,-1,-1,-1,-1,-1,-1,-1,-1,-1,-1,-1,-1,-1,-1,-1,-1,-1],"split_conditions":[3.0574578E-1,-5.364958E-1,-2.4457088E-1,-2.4422069E0,1.21979855E-1,-2.3209715E-2,-1.0282881E-1,-1.0825021E0,3.5462234E-2,-2.211531E-2,-1.2777877E-2,2.9228231E-2,-1.0110642E0,-5.6147706E-2,8.756855E-2,-8.149733E-3,-1.7371757E-1,-6.819181E-1,-4.6007955E-1,-8.438356E-1,-1.6170843E-2,-5.605056E-1,-1.0462685E0,-1.8003124E-1,-1.470087E-1,2.8208148E-1,-1.7240666E-1,-1.24418736E-1,1.6415467E-2,-1.4499526E-1,6.2901266E-2,1.21044986E-1,-1.4079088E-1,2.0986103E-2,-1.5855968E-1,-1.3381927E-1,7.643333E-2,-5.1496863E-2,-1.3082539E-1,1.1646747E-1,-9.548857E-2,9.850216E-2,-1.413684E-1,1.1840036E-1,-1.4283924E-1,-1.4613807E-1,1.1680677E-1,8.790887E-2,-1.8706848E-1,1.2897502E-1,-8.116718E-2,-1.24980845E-1,1.04375295E-1],"split_indices":[39,18,42,1,34,8,61,16,78,20,91,2,37,23,30,74,0,56,43,69,8,73,21,65,0,82,0,0,24,0,34,0,0,0,0,0,0,0,0,0,0,0,0,0,0,0,0,0,0,0,0,0,0],"split_type":[0,0,0,0,0,0,0,0,0,0,0,0,0,0,0,0,0,0,0,0,0,0,0,0,0,0,0,0,0,0,0,0,0,0,0,0,0,0,0,0,0,0,0,0,0,0,0,0,0,0,0,0,0],"sum_hessian":[2.0828965E3,1.1616891E3,9.212074E2,3.72857E2,7.8883203E2,8.2352423E2,9.768322E1,1.1585989E2,2.569971E2,6.9125635E2,9.757574E1,5.7772394E2,2.4580026E2,2.8317757E1,6.936546E1,1.1091551E2,4.9443827E0,1.292931E2,1.2770398E2,6.8305237E2,8.203983E0,4.829147E1,4.9284267E1,5.757054E2,2.0185766E0,2.3356E2,1.2240263E1,2.0641875E0,2.6253569E1,3.8828163E1,3.05373E1,1.0909243E2,1.8230855E0,5.1111553E1,7.8181564E1,9.4657545E0,1.1823822E2,3.19933E1,6.51059E2,5.863155E0,2.3408284E0,3.7923237E1,1.036823E1,5.9954886E0,4.328878E1,1.327993E0,5.743774E2,2.2713914E2,6.4208517E0,2.4995235E1,1.2583334E0,9.8372965E0,2.0700005E1],"tree_param":{"num_deleted":"0","num_feature":"95","num_nodes":"53","size_leaf_vector":"1"}},{"base_weights":[-5.298305E-3,-6.7037845E-1,8.278232E-1,2.0244116E-1,-1.093584E0,1.0061222E0,9.909083E-2,9.647634E-1,-1.3669692E-1,-1.2047759E0,-3.1524092E-1,1.022959E0,-1.3581258E-1,4.8791096E-1,-1.0472434E0,1.0979425E0,-1.620142E-1,-8.2492656E-1,5.521211E-1,-1.226183E0,4.9671358E-1,4.191167E-1,-1.0491396E0,-1.7721117E-1,1.0361396E0,6.77246E-1,-1.508198E-1,7.993217E-1,-1.4080307E-1,-1.6899078E-1,1.1492666E-1,1.8980375E-2,-1.5202452E-1,-1.286919E-1,7.03681E-2,-1.2998274E-1,-8.175469E-2,1.1209718E-1,-9.186915E-2,9.139674E-2,-1.3521753E-1,1.138166E-1,-1.3740583E-1,1.0503035E-1,-1.1882772E-1,8.076428E-2,-1.5599531E-1,-8.454252E-2,1.1660063E-1],"categories":[],"categories_nodes":[],"categories_segments":[],"categories_sizes":[],"default_left":[0,0,0,0,0,0,0,0,0,0,0,0,0,0,0,0,0,0,0,0,0,0,0,0,0,0,0,0,0,0,0,0,0,0,0,0,0,0,0,0,0,0,0,0,0,0,0,0,0],"id":8,"left_children":[1,3,5,7,9,11,13,15,17,19,21,23,-1,25,27,29,-1,31,33,35,37,39,41,-1,43,45,-1,47,-1,-1,-1,-1,-1,-1,-1,-1,-1,-1,-1,-1,-1,-1,-1,-1,-1,-1,-1,-1,-1],"loss_changes":[1.0974338E3,4.0704684E2,1.1414038E2,9.3329155E1,6.3826782E1,2.9503845E1,7.804032E1,4.0031464E1,1.1914643E2,2.42406E1,5.114884E1,2.7693176E1,0E0,5.0367836E1,3.0687916E1,1.7147552E1,0E0,8.89343E1,3.5949596E1,1.8227905E1,8.781431E0,4.30853E1,3.521185E1,0E0,2.32771E1,3.6251377E1,0E0,5.7446523E0,0E0,0E0,0E0,0E0,0E0,0E0,0E0,0E0,0E0,0E0,0E0,0E0,0E0,0E0,0E0,0E0,0E0,0E0,0E0,0E0,0E0],"parents":[2147483647,0,0,1,1,2,2,3,3,4,4,5,5,6,6,7,7,8,8,9,9,10,10,11,11,13,13,14,14,15,15,17,17,18,18,19,19,20,20,21,21,22,22,24,24,25,25,27,27],"right_children":[2,4,6,8,10,12,14,16,18,20,22,24,-1,26,28,30,-1,32,34,36,38,40,42,-1,44,46,-1,48,-1,-1,-1,-1,-1,-1,-1,-1,-1,-1,-1,-1,-1,-1,-1,-1,-1,-1,-1,-1,-1],"split_conditions":[3.0574578E-1,-5.364958E-1,-3.1782216E-1,-2.4422069E0,1.21979855E-1,5.620899E-1,4.777801E-1,-1.0825021E0,3.5462234E-2,-2.211531E-2,-1.2777877E-2,-2.5584168E0,-1.3581258E-1,1.8853443E-2,-9.5644027E-1,-5.0921112E-2,-1.620142E-1,-6.819181E-1,-4.6007955E-1,-1.6269416E-2,-1.6170843E-2,-5.605056E-1,-1.0462685E0,-1.7721117E-1,1.3695832E-2,-1.9226896E-2,-1.508198E-1,1.5974509E-2,-1.4080307E-1,-1.6899078E-1,1.1492666E-1,1.8980375E-2,-1.5202452E-1,-1.286919E-1,7.03681E-2,-1.2998274E-1,-8.175469E-2,1.1209718E-1,-9.186915E-2,9.139674E-2,-1.3521753E-1,1.138166E-1,-1.3740583E-1,1.0503035E-1,-1.1882772E-1,8.076428E-2,-1.5599531E-1,-8.454252E-2,1.1660063E-1],"split_indices":[39,18,2,1,34,64,43,16,78,20,91,19,0,61,15,91,0,56,43,23,8,73,21,0,9,23,0,5,0,0,0,0,0,0,0,0,0,0,0,0,0,0,0,0,0,0,0,0,0],"split_type":[0,0,0,0,0,0,0,0,0,0,0,0,0,0,0,0,0,0,0,0,0,0,0,0,0,0,0,0,0,0,0,0,0,0,0,0,0,0,0,0,0,0,0,0,0,0,0,0,0],"sum_hessian":[1.9785951E3,1.1003678E3,8.782273E2,3.594857E2,7.4088214E2,7.0528455E2,1.729427E2,1.1011714E2,2.4936856E2,6.4779236E2,9.3089775E1,7.008608E2,4.423804E0,1.2956909E2,4.3373604E1,1.0526875E2,4.848389E0,1.2463871E2,1.2472984E2,6.400194E2,7.7729683E0,4.674473E1,4.6345043E1,2.6631598E0,6.9819763E2,1.189474E2,1.062169E1,6.890656E0,3.648295E1,1.3258272E0,1.03942924E2,5.097464E1,7.366407E1,8.926296E0,1.1580355E2,5.404405E2,9.9578926E1,5.538332E0,2.2346365E0,3.6915546E1,9.829187E0,5.67032E0,4.067472E1,6.943045E2,3.8930972E0,1.1300011E2,5.947301E0,1.018159E0,5.872497E0],"tree_param":{"num_deleted":"0","num_feature":"95","num_nodes":"49","size_leaf_vector":"1"}},{"base_weights":[-6.2888563E-3,-6.414735E-1,7.830453E-1,1.88008E-1,-1.0550419E0,9.544322E-1,9.0322636E-2,7.1952677E-1,-2.5094765E-1,-1.164802E0,-3.0040276E-1,9.706814E-1,-1.2877652E-1,4.5194831E-1,-1.0072352E0,8.522598E-1,-1.800171E-1,-1.2926786E-1,2.1702583E-1,-1.1856934E0,4.7378775E-1,3.89194E-1,-1.0108198E0,-1.6293332E-1,9.836661E-1,6.2823546E-1,-1.4396034E-1,7.59505E-2,-1.3567396E-1,9.297865E-2,-1.2951535E-1,4.543318E-2,-1.6242346E-1,-3.84701E-2,-1.22716084E-1,1.08176626E-1,-8.852922E-2,8.488466E-2,-1.2985782E-1,1.0972464E-1,-1.3275157E-1,9.963976E-2,-1.3279204E-1,7.598897E-2,-1.5584885E-1],"categories":[],"categories_nodes":[],"categories_segments":[],"categories_sizes":[],"default_left":[0,0,0,0,0,0,0,0,0,0,0,0,0,0,0,0,0,0,0,0,0,0,0,0,0,0,0,0,0,0,0,0,0,0,0,0,0,0,0,0,0,0,0,0,0],"id":9,"left_children":[1,3,5,7,9,11,13,15,17,19,21,23,-1,25,27,29,-1,-1,31,33,35,37,39,-1,41,43,-1,-1,-1,-1,-1,-1,-1,-1,-1,-1,-1,-1,-1,-1,-1,-1,-1,-1,-1],"loss_changes":[9.4214386E2,3.5738962E2,9.9391846E1,8.120344E1,5.7213013E1,2.5719238E1,6.685435E1,5.4153717E1,9.336331E1,2.1319275E1,4.4284847E1,2.4132324E1,0E0,4.3094254E1,2.6822323E1,2.6199501E1,0E0,0E0,5.8679913E1,1.9424316E1,7.8556633E0,3.6931633E1,3.1104122E1,0E0,2.0883606E1,3.4704266E1,0E0,0E0,0E0,0E0,0E0,0E0,0E0,0E0,0E0,0E0,0E0,0E0,0E0,0E0,0E0,0E0,0E0,0E0,0E0],"parents":[2147483647,0,0,1,1,2,2,3,3,4,4,5,5,6,6,7,7,8,8,9,9,10,10,11,11,13,13,14,14,15,15,18,18,19,19,20,20,21,21,22,22,24,24,25,25],"right_children":[2,4,6,8,10,12,14,16,18,20,22,24,-1,26,28,30,-1,-1,32,34,36,38,40,-1,42,44,-1,-1,-1,-1,-1,-1,-1,-1,-1,-1,-1,-1,-1,-1,-1,-1,-1,-1,-1],"split_conditions":[3.0574578E-1,-5.364958E-1,-3.1782216E-1,-1.0131118E0,1.21979855E-1,5.620899E-1,4.777801E-1,1.7298426E-2,-4.440232E-2,-2.211531E-2,-1.2777877E-2,-2.5584168E0,-1.2877652E-1,1.8853443E-2,-9.5644027E-1,-6.050711E-3,-1.800171E-1,-1.2926786E-1,3.3644846E-1,-8.438356E-1,-1.6170843E-2,-5.605056E-1,-1.0462685E0,-1.6293332E-1,1.6225508E0,-2.8822082E-1,-1.4396034E-1,7.59505E-2,-1.3567396E-1,9.297865E-2,-1.2951535E-1,4.543318E-2,-1.6242346E-1,-3.84701E-2,-1.22716084E-1,1.08176626E-1,-8.852922E-2,8.488466E-2,-1.2985782E-1,1.0972464E-1,-1.3275157E-1,9.963976E-2,-1.3279204E-1,7.598897E-2,-1.5584885E-1],"split_indices":[39,18,2,15,34,64,43,24,39,20,91,19,0,61,15,6,0,0,63,69,8,73,21,0,54,56,0,0,0,0,0,0,0,0,0,0,0,0,0,0,0,0,0,0,0],"split_type":[0,0,0,0,0,0,0,0,0,0,0,0,0,0,0,0,0,0,0,0,0,0,0,0,0,0,0,0,0,0,0,0,0,0,0,0,0,0,0,0,0,0,0,0,0],"sum_hessian":[1.8771262E3,1.0402303E3,8.368958E2,3.4627087E2,6.939595E2,6.706036E2,1.6629222E2,1.5633281E2,1.8993808E2,6.0536707E2,8.859242E1,6.663417E2,4.2619076E0,1.2552289E2,4.076933E1,1.4913824E2,7.194567E0,5.8330154E1,1.3160793E2,5.980189E2,7.3481264E0,4.5184402E1,4.340802E1,2.692639E0,6.6364905E2,1.1543276E2,1.0090125E1,6.539442E0,3.4229885E1,1.4448888E2,4.649366E0,1.1724975E2,1.4358172E1,2.9941456E1,5.6807745E2,5.217946E0,2.1301801E0,3.5903423E1,9.280977E0,5.347574E0,3.8060448E1,6.605798E2,3.0693011E0,1.094931E2,5.9396577E0],"tree_param":{"num_deleted":"0","num_feature":"95","num_nodes":"45","size_leaf_vector":"1"}},{"base_weights":[-7.303798E-3,5.7826394E-1,-7.8434056E-1,-3.4848418E-2,8.930337E-1,-1.1051203E0,-3.0774193E-2,4.8719358E-1,-6.833729E-1,1.0217104E0,5.8859473E-1,8.191069E-2,-1.1487849E0,2.5734416E-1,-1.0516975E0,5.978186E-1,-1.4076008E-1,-1.0295045E0,1.891619E-1,1.0312333E0,-1.7231588E-1,7.1320313E-1,-2.1985185E-1,1.01314835E-1,-1.18182935E-1,-1.1999098E0,-3.6173493E-1,-2.600054E-1,9.9214566E-1,-1.326382E-1,9.971409E-2,6.786787E-2,-1.6170006E-1,7.1232E-2,-1.291029E-1,-1.3453369E-1,8.265722E-2,1.0403647E-1,-1.4643449E-1,7.953597E-2,-2.2051688E-1,-1.2247683E-1,3.9058786E-2,2.0841034E-1,-1.2328161E-1,-1.272489E-1,3.4423787E-2,1.0860928E-1,-1.1330789E-1],"categories":[],"categories_nodes":[],"categories_segments":[],"categories_sizes":[],"default_left":[0,0,0,0,0,0,0,0,0,0,0,0,0,0,0,0,0,0,0,0,0,0,0,0,0,0,0,0,0,0,0,0,0,0,0,0,0,0,0,0,0,0,0,0,0,0,0,0,0],"id":10,"left_children":[1,3,5,7,9,11,13,15,17,19,21,23,25,27,29,31,-1,33,35,37,-1,39,-1,-1,-1,41,43,45,47,-1,-1,-1,-1,-1,-1,-1,-1,-1,-1,-1,-1,-1,-1,-1,-1,-1,-1,-1,-1],"loss_changes":[8.105028E2,1.9607074E2,1.850076E2,1.1732436E2,2.5694214E1,2.7922363E1,6.780394E1,4.1093754E1,4.686357E1,1.4074432E1,7.164688E1,2.4713648E1,2.0406006E1,6.86321E1,2.9872147E1,3.371717E1,0E0,5.1388794E1,4.4866722E1,1.2221649E1,0E0,4.8244743E1,0E0,0E0,0E0,1.9689392E1,7.292421E1,6.5495766E1,1.6109337E1,0E0,0E0,0E0,0E0,0E0,0E0,0E0,0E0,0E0,0E0,0E0,0E0,0E0,0E0,0E0,0E0,0E0,0E0,0E0,0E0],"parents":[2147483647,0,0,1,1,2,2,3,3,4,4,5,5,6,6,7,7,8,8,9,9,10,10,11,11,12,12,13,13,14,14,15,15,17,17,18,18,19,19,21,21,25,25,26,26,27,27,28,28],"right_children":[2,4,6,8,10,12,14,16,18,20,22,24,26,28,30,32,-1,34,36,38,-1,40,-1,-1,-1,42,44,46,48,-1,-1,-1,-1,-1,-1,-1,-1,-1,-1,-1,-1,-1,-1,-1,-1,-1,-1,-1,-1],"split_conditions":[1.0545113E-2,8.940192E-1,6.2901266E-2,-8.982129E-1,-2.3209715E-2,-1.0282881E-1,1.7163279E-2,-4.7203302E-1,3.2469667E-2,9.871589E-1,5.159367E-1,1.6673353E-2,1.2373075E-1,-5.6147706E-2,2.2284828E-1,1.0954311E0,-1.4076008E-1,-1.0133406E0,-2.0366886E-1,2.8504273E-2,-1.7231588E-1,1.14362426E-1,-2.1985185E-1,1.01314835E-1,-1.18182935E-1,2.0752654E0,1.3313393E-1,1.7483309E-2,5.5123996E-2,-1.326382E-1,9.971409E-2,6.786787E-2,-1.6170006E-1,7.1232E-2,-1.291029E-1,-1.3453369E-1,8.265722E-2,1.0403647E-1,-1.4643449E-1,7.953597E-2,-2.2051688E-1,-1.2247683E-1,3.9058786E-2,2.0841034E-1,-1.2328161E-1,-1.272489E-1,3.4423787E-2,1.0860928E-1,-1.1330789E-1],"split_indices":[9,36,34,18,8,61,24,15,40,45,28,7,87,23,89,63,0,51,43,0,0,19,0,0,0,55,87,5,81,0,0,0,0,0,0,0,0,0,0,0,0,0,0,0,0,0,0,0,0],"split_type":[0,0,0,0,0,0,0,0,0,0,0,0,0,0,0,0,0,0,0,0,0,0,0,0,0,0,0,0,0,0,0,0,0,0,0,0,0,0,0,0,0,0,0,0,0,0,0,0,0],"sum_hessian":[1.7792983E3,1.01480585E3,7.644925E2,3.4455902E2,6.702468E2,5.3590204E2,2.2859045E2,1.9103255E2,1.5352646E2,4.6946344E2,2.0078336E2,1.8982523E1,5.169195E2,1.788613E2,4.9729145E1,1.8114134E2,9.891199E0,1.0979232E2,4.3734146E1,4.684625E2,1.000948E0,1.9290302E2,7.8803487E0,1.1043195E1,7.9393287E0,4.8489716E2,3.2022346E1,1.053406E2,7.35207E1,4.4161148E1,5.567995E0,1.7543019E2,5.711144E0,1.4107662E1,9.5684654E1,1.2509119E1,3.1225027E1,4.6733563E2,1.1268818E0,1.8832874E2,4.574273E0,4.7766156E2,7.2355933E0,8.043922E0,2.3978424E1,3.8957172E1,6.638343E1,7.08765E1,2.644197E0],"tree_param":{"num_deleted":"0","num_feature":"95","num_nodes":"49","size_leaf_vector":"1"}},{"base_weights":[-8.293107E-3,-5.947823E-1,7.07256E-1,1.5652797E-1,-9.9176097E-1,8.6763906E-1,6.928018E-2,8.348848E-1,-1.3557383E-1,-1.1013448E0,-2.7074733E-1,9.991363E-1,5.565289E-1,3.9495054E-1,-9.5598465E-1,9.697198E-1,-1.5597267E-1,-7.5566715E-1,4.5946255E-1,-6.895225E-1,-1.20706536E-1,-1.3252738E-1,1.5426956E-1,1.0110319E0,-1.3533509E-1,6.7955184E-1,-1.7573838E-1,5.529148E-1,-1.5959238E-1,-1.3070735E-1,6.36984E-1,1.0342194E-1,-1.4424455E-1,1.5597328E-2,-1.4434525E-1,6.8471484E-2,-7.3435694E-2,-1.2270621E-1,7.542439E-2,-1.177245E-1,4.9694672E-2,1.0213041E-1,-1.5920283E-1,-1.6795987E-1,7.693073E-2,6.7574225E-2,-1.5033059E-1,-7.186769E-2,1.0616907E-1],"categories":[],"categories_nodes":[],"categories_segments":[],"categories_sizes":[],"default_left":[0,0,0,0,0,0,0,0,0,0,0,0,0,0,0,0,0,0,0,0,0,0,0,0,0,0,0,0,0,0,0,0,0,0,0,0,0,0,0,0,0,0,0,0,0,0,0,0,0],"id":11,"left_children":[1,3,5,7,9,11,13,15,17,19,21,23,25,27,29,31,-1,33,35,37,-1,-1,39,41,-1,43,-1,45,-1,-1,47,-1,-1,-1,-1,-1,-1,-1,-1,-1,-1,-1,-1,-1,-1,-1,-1,-1,-1],"loss_changes":[7.068001E2,2.762103E2,7.756445E1,6.3688477E1,4.7561035E1,2.4241669E1,5.162792E1,3.2738655E1,8.341648E1,2.2046204E1,3.6616188E1,1.3256165E1,5.3100727E1,3.7739162E1,2.169038E1,1.5832481E1,0E0,6.958755E1,3.1564621E1,8.604213E1,0E0,0E0,2.7414087E1,1.2943146E1,0E0,3.8106155E1,0E0,2.8626717E1,0E0,0E0,5.027981E0,0E0,0E0,0E0,0E0,0E0,0E0,0E0,0E0,0E0,0E0,0E0,0E0,0E0,0E0,0E0,0E0,0E0,0E0],"parents":[2147483647,0,0,1,1,2,2,3,3,4,4,5,5,6,6,7,7,8,8,9,9,10,10,11,11,12,12,13,13,14,14,15,15,17,17,18,18,19,19,22,22,23,23,25,25,27,27,30,30],"right_children":[2,4,6,8,10,12,14,16,18,20,22,24,26,28,30,32,-1,34,36,38,-1,-1,40,42,-1,44,-1,46,-1,-1,48,-1,-1,-1,-1,-1,-1,-1,-1,-1,-1,-1,-1,-1,-1,-1,-1,-1,-1],"split_conditions":[3.0574578E-1,-5.364958E-1,-3.1782216E-1,-2.4422069E0,1.21979855E-1,-2.3209715E-2,4.777801E-1,-1.0825021E0,3.5462234E-2,-1.9836009E-1,-6.015114E-4,2.2725752E-2,5.159367E-1,-1.9226896E-2,1.5760866E-1,-8.149733E-3,-1.5597267E-1,-6.819181E-1,3.104476E-1,-1.2587245E-1,-1.20706536E-1,-1.3252738E-1,-3.0749932E-1,9.871589E-1,-1.3533509E-1,9.9155664E-1,-1.7573838E-1,-2.8822082E-1,-1.5959238E-1,-1.3070735E-1,-4.9875516E-1,1.0342194E-1,-1.4424455E-1,1.5597328E-2,-1.4434525E-1,6.8471484E-2,-7.3435694E-2,-1.2270621E-1,7.542439E-2,-1.177245E-1,4.9694672E-2,1.0213041E-1,-1.5920283E-1,-1.6795987E-1,7.693073E-2,6.7574225E-2,-1.5033059E-1,-7.186769E-2,1.0616907E-1],"split_indices":[39,18,2,1,34,8,43,16,78,2,31,5,28,23,23,74,0,56,78,42,0,0,1,45,0,36,0,56,0,0,12,0,0,0,0,0,0,0,0,0,0,0,0,0,0,0,0,0,0],"split_type":[0,0,0,0,0,0,0,0,0,0,0,0,0,0,0,0,0,0,0,0,0,0,0,0,0,0,0,0,0,0,0,0,0,0,0,0,0,0,0,0,0,0,0,0,0,0,0,0,0],"sum_hessian":[1.6822112E3,9.2457E2,7.5764124E2,3.1984546E2,6.0472455E2,6.051504E2,1.5249088E2,9.571212E1,2.2413336E2,5.2448303E2,8.024147E1,4.2380756E2,1.8134279E2,1.16196434E2,3.629445E1,9.11734E1,4.5387206E0,1.0962358E2,1.1450977E2,1.0867486E2,4.158082E2,2.2441874E1,5.77996E1,4.2224268E2,1.5648763E0,1.728588E2,8.484001E0,1.08323845E2,7.8725896E0,2.988688E1,6.4075675E0,8.935535E1,1.8180505E0,4.747285E1,6.215073E1,9.6692154E1,1.781762E1,7.9300125E1,2.9374733E1,1.1332056E1,4.646754E1,4.2118823E2,1.0544503E0,5.686288E0,1.671725E2,1.02851425E2,5.472419E0,1.3634075E0,5.04416E0],"tree_param":{"num_deleted":"0","num_feature":"95","num_nodes":"49","size_leaf_vector":"1"}},{"base_weights":[-9.475777E-3,-5.714466E-1,6.710551E-1,1.1636642E-1,-9.804197E-1,8.8044184E-1,2.1691294E-1,6.08381E-1,-2.4903996E-1,-1.0706781E0,-3.579356E-1,-2.175828E-1,8.931894E-1,6.3450587E-1,-2.8443736E-1,7.3621243E-1,-1.6950166E-1,3.9025125E-1,-9.154044E-1,-5.993755E-1,-1.18351E-1,-1.2752183E-1,3.2642215E-1,9.0546894E-1,-2.2482963E-1,7.30568E-1,-1.6009311E-1,-6.8956214E-1,8.1572485E-1,8.627254E-2,-5.874137E-2,-1.3477091E-1,5.789686E-2,-1.3815145E-1,2.3370836E-2,-1.1954868E-1,6.9134526E-2,7.652992E-2,-1.2042934E-1,9.230497E-2,-1.236613E-1,9.3305126E-2,-1.5318515E-2,-1.5330431E-1,1.1071107E-2,9.98926E-2,-1.16928294E-1],"categories":[],"categories_nodes":[],"categories_segments":[],"categories_sizes":[],"default_left":[0,0,0,0,0,0,0,0,0,0,0,0,0,0,0,0,0,0,0,0,0,0,0,0,0,0,0,0,0,0,0,0,0,0,0,0,0,0,0,0,0,0,0,0,0,0,0],"id":12,"left_children":[1,3,5,7,9,11,13,15,17,19,21,-1,23,25,27,29,-1,31,33,35,-1,-1,37,39,-1,41,-1,43,45,-1,-1,-1,-1,-1,-1,-1,-1,-1,-1,-1,-1,-1,-1,-1,-1,-1,-1],"loss_changes":[6.092743E2,2.4556396E2,6.832831E1,5.880799E1,3.0366821E1,2.1144867E1,4.806362E1,4.2273674E1,8.041421E1,2.4682861E1,4.4867542E1,0E0,2.099649E1,2.803115E1,4.7193405E1,2.2728683E1,0E0,3.246768E1,4.976741E1,7.335096E1,0E0,0E0,2.8700687E1,1.9606293E1,0E0,2.1727486E1,0E0,5.2150925E1,1.1574335E1,0E0,0E0,0E0,0E0,0E0,0E0,0E0,0E0,0E0,0E0,0E0,0E0,0E0,0E0,0E0,0E0,0E0,0E0],"parents":[2147483647,0,0,1,1,2,2,3,3,4,4,5,5,6,6,7,7,8,8,9,9,10,10,12,12,13,13,14,14,15,15,17,17,18,18,19,19,22,22,23,23,25,25,27,27,28,28],"right_children":[2,4,6,8,10,12,14,16,18,20,22,-1,24,26,28,30,-1,32,34,36,-1,-1,38,40,-1,42,-1,44,46,-1,-1,-1,-1,-1,-1,-1,-1,-1,-1,-1,-1,-1,-1,-1,-1,-1,-1],"split_conditions":[3.0574578E-1,-4.9202242E-1,-5.375626E-1,-1.0118172E0,1.21979855E-1,-1.2524751E-1,-2.043998E-2,1.7298426E-2,-5.9623513E-2,-1.9836009E-1,1.4213183E-2,-2.175828E-1,5.139746E-2,-4.8034586E-2,2.5041273E0,1.4204283E-1,-1.6950166E-1,-9.970661E-1,1.668476E-2,-1.2587245E-1,-1.18351E-1,-1.2752183E-1,1.3348135E-2,5.620899E-1,-2.2482963E-1,-4.5519568E-2,-1.6009311E-1,3.3576378E-1,1.3027787E-2,8.627254E-2,-5.874137E-2,-1.3477091E-1,5.789686E-2,-1.3815145E-1,2.3370836E-2,-1.1954868E-1,6.9134526E-2,7.652992E-2,-1.2042934E-1,9.230497E-2,-1.236613E-1,9.3305126E-2,-1.5318515E-2,-1.5330431E-1,1.1071107E-2,9.98926E-2,-1.16928294E-1],"split_indices":[39,18,2,17,34,5,8,24,91,2,7,0,24,80,48,28,0,63,24,42,0,0,24,64,0,40,0,54,24,0,0,0,0,0,0,0,0,0,0,0,0,0,0,0,0,0,0],"split_type":[0,0,0,0,0,0,0,0,0,0,0,0,0,0,0,0,0,0,0,0,0,0,0,0,0,0,0,0,0,0,0,0,0,0,0,0,0,0,0,0,0,0,0,0,0,0,0],"sum_hessian":[1.5911276E3,8.7156464E2,7.195629E2,3.2525858E2,5.46306E2,4.9185135E2,2.2771161E2,1.383318E2,1.8692676E2,4.764955E2,6.981054E1,1.3381532E0,4.9051318E2,1.2408832E2,1.0362328E2,1.3170306E2,6.628733E0,9.5612854E1,9.131391E1,9.3259445E1,3.8323605E2,2.9460125E1,4.0350418E1,4.8931232E2,1.2008785E0,1.196211E2,4.467219E0,7.600745E1,2.7615837E1,1.2053086E2,1.1172202E1,8.763694E0,8.684916E1,6.4819275E1,2.6494638E1,6.3846237E1,2.9413202E1,3.17479E1,8.602517E0,4.8589352E2,3.4187815E0,9.727738E1,2.2343721E1,3.6558968E1,3.944848E1,2.573725E1,1.8785876E0],"tree_param":{"num_deleted":"0","num_feature":"95","num_nodes":"47","size_leaf_vector":"1"}},{"base_weights":[-1.0608037E-2,-5.5008787E-1,6.3622105E-1,1.0749122E-1,-9.549051E-1,8.779081E-1,2.6241514E-1,8.417889E-1,-1.2125886E-1,-5.912069E-1,-1.1113075E0,8.961507E-1,-1.4813331E-1,3.8960013E-1,-1.0832951E0,9.577902E-1,-1.5173751E-1,-1.1023523E0,2.2614795E-1,-2.218488E-2,-1.1607496E-1,-1.1746853E-1,-2.7136505E-1,9.1177124E-1,-1.2755834E-1,4.7275057E-1,-1.2938212E-1,-1.6405674E0,5.931484E-1,-1.7204383E-1,1.0386068E-1,-1.3180085E-1,1.08094156E-1,-1.7035124E-1,3.404993E-2,-6.830131E-2,1.0364155E-1,1.05047226E-1,-1.1491322E-1,9.2197075E-2,-1.543573E-1,7.274967E-2,-1.9113664E-2,-2.255067E-1,-1.1882889E-1,1.0010308E-1,-7.300343E-2],"categories":[],"categories_nodes":[],"categories_segments":[],"categories_sizes":[],"default_left":[0,0,0,0,0,0,0,0,0,0,0,0,0,0,0,0,0,0,0,0,0,0,0,0,0,0,0,0,0,0,0,0,0,0,0,0,0,0,0,0,0,0,0,0,0,0,0],"id":13,"left_children":[1,3,5,7,9,11,13,15,17,19,21,23,-1,25,27,29,-1,31,33,35,-1,-1,37,39,-1,41,-1,43,45,-1,-1,-1,-1,-1,-1,-1,-1,-1,-1,-1,-1,-1,-1,-1,-1,-1,-1],"loss_changes":[5.256458E2,2.1873866E2,6.1658142E1,5.282094E1,2.8266174E1,1.9214996E1,4.670544E1,2.1889519E1,8.2112564E1,5.0220173E1,1.8548676E1,1.5175049E1,0E0,3.5298573E1,2.3035358E1,1.7325218E1,0E0,3.107753E1,3.9902267E1,5.567543E1,0E0,0E0,3.156811E1,1.1707886E1,0E0,4.0199574E1,0E0,2.319992E0,4.3068886E0,0E0,0E0,0E0,0E0,0E0,0E0,0E0,0E0,0E0,0E0,0E0,0E0,0E0,0E0,0E0,0E0,0E0,0E0],"parents":[2147483647,0,0,1,1,2,2,3,3,4,4,5,5,6,6,7,7,8,8,9,9,10,10,11,11,13,13,14,14,15,15,17,17,18,18,19,19,22,22,23,23,25,25,27,27,28,28],"right_children":[2,4,6,8,10,12,14,16,18,20,22,24,-1,26,28,30,-1,32,34,36,-1,-1,38,40,-1,42,-1,44,46,-1,-1,-1,-1,-1,-1,-1,-1,-1,-1,-1,-1,-1,-1,-1,-1,-1,-1],"split_conditions":[3.0574578E-1,-4.9202242E-1,-2.356374E-2,-2.6611369E0,-1.1940808E-1,1.2689438E-2,-2.8822082E-1,-1.134551E0,-7.378319E-2,-7.676276E-2,8.624487E-1,2.9228231E-2,-1.4813331E-1,4.015638E-1,1.5297548E-1,-5.0921112E-2,-1.5173751E-1,3.5727932E1,-6.721154E-1,1.088966E-1,-1.1607496E-1,-1.1746853E-1,-9.270053E-2,9.871589E-1,-1.2755834E-1,-2.2803555E-1,-1.2938212E-1,-3.0749932E-1,-1.2074145E0,-1.7204383E-1,1.0386068E-1,-1.3180085E-1,1.08094156E-1,-1.7035124E-1,3.404993E-2,-6.830131E-2,1.0364155E-1,1.05047226E-1,-1.1491322E-1,9.2197075E-2,-1.543573E-1,7.274967E-2,-1.9113664E-2,-2.255067E-1,-1.1882889E-1,1.0010308E-1,-7.300343E-2],"split_indices":[39,18,8,85,38,67,56,15,39,12,43,2,0,64,38,91,0,35,19,82,0,0,23,45,0,19,0,1,15,0,0,0,0,0,0,0,0,0,0,0,0,0,0,0,0,0,0],"split_type":[0,0,0,0,0,0,0,0,0,0,0,0,0,0,0,0,0,0,0,0,0,0,0,0,0,0,0,0,0,0,0,0,0,0,0,0,0,0,0,0,0,0,0,0,0,0,0],"sum_hessian":[1.504356E3,8.203243E2,6.8403174E2,3.1285757E2,5.0746667E2,4.1461243E2,2.694193E2,7.367564E1,2.3918195E2,1.540406E2,3.534261E2,4.1204645E2,2.5659628E0,2.46804E2,2.261531E1,7.0788925E1,2.886715E0,6.197853E1,1.7720341E2,7.757523E1,7.646536E1,3.2825882E2,2.516727E1,4.0967993E2,2.366523E0,2.3587254E2,1.093145E1,1.6989256E1,5.6260557E0,1.4792402E0,6.9309685E1,5.67676E1,5.2109303E0,9.136095E0,1.6806732E2,4.7979168E1,2.9596066E1,9.964654E0,1.5202616E1,4.086071E2,1.0728397E0,1.7039351E2,6.5479034E1,5.512944E0,1.1476311E1,4.486516E0,1.1395396E0],"tree_param":{"num_deleted":"0","num_feature":"95","num_nodes":"47","size_leaf_vector":"1"}},{"base_weights":[-1.1552654E-2,4.6262038E-1,-6.822838E-1,-5.6897163E-2,7.394467E-1,-1.0018725E0,-3.0256411E-2,3.8231894E-1,-6.2165993E-1,8.753748E-1,4.4187316E-1,1.6055879E-1,-1.0506963E0,2.2862154E-1,-9.950436E-1,5.7626474E-1,-6.2980866E-1,-9.7815377E-1,1.8873432E-1,8.8611335E-1,-1.4369062E-1,5.611189E-1,-1.7919336E-1,9.5873475E-2,-1.08450964E-1,-1.1154265E0,-1.8433167E-1,-2.3448837E-1,8.7565273E-1,-1.2456459E-1,8.8232756E-2,-6.763032E-2,7.026805E-2,7.776901E-2,-1.9202423E-1,5.967028E-2,-1.23282194E-1,-1.276251E-1,7.512028E-2,6.425545E-2,1.0015129E-1,6.4457975E-2,-2.055331E-1,3.9575603E-2,-1.14236526E-1,-1.1224127E-1,1.6345686E-1,3.8544483E-2,-1.0456442E-1,9.7490296E-2,-9.650198E-2],"categories":[],"categories_nodes":[],"categories_segments":[],"categories_sizes":[],"default_left":[0,0,0,0,0,0,0,0,0,0,0,0,0,0,0,0,0,0,0,0,0,0,0,0,0,0,0,0,0,0,0,0,0,0,0,0,0,0,0,0,0,0,0,0,0,0,0,0,0,0,0],"id":14,"left_children":[1,3,5,7,9,11,13,15,17,19,21,23,25,27,29,31,33,35,37,39,-1,41,-1,-1,-1,43,45,47,49,-1,-1,-1,-1,-1,-1,-1,-1,-1,-1,-1,-1,-1,-1,-1,-1,-1,-1,-1,-1,-1,-1],"loss_changes":[4.543231E2,1.20399796E2,1.2325159E2,7.263148E1,2.1699646E1,2.2699585E1,4.9088295E1,3.2711052E1,3.7180416E1,1.0555023E1,4.7150196E1,1.7804363E1,2.1167603E1,4.6667107E1,2.0658566E1,2.245557E1,5.0492043E1,3.646917E1,3.3886738E1,9.8316345E0,0E0,3.7403378E1,0E0,0E0,0E0,1.4880585E1,4.9087715E1,4.624433E1,1.2796204E1,0E0,0E0,0E0,0E0,0E0,0E0,0E0,0E0,0E0,0E0,0E0,0E0,0E0,0E0,0E0,0E0,0E0,0E0,0E0,0E0,0E0,0E0],"parents":[2147483647,0,0,1,1,2,2,3,3,4,4,5,5,6,6,7,7,8,8,9,9,10,10,11,11,12,12,13,13,14,14,15,15,16,16,17,17,18,18,19,19,21,21,25,25,26,26,27,27,28,28],"right_children":[2,4,6,8,10,12,14,16,18,20,22,24,26,28,30,32,34,36,38,40,-1,42,-1,-1,-1,44,46,48,50,-1,-1,-1,-1,-1,-1,-1,-1,-1,-1,-1,-1,-1,-1,-1,-1,-1,-1,-1,-1,-1,-1],"split_conditions":[1.0545113E-2,8.940192E-1,6.2901266E-2,-8.982129E-1,-2.3209715E-2,-1.0282881E-1,1.7163279E-2,-1.5323441E-2,3.2469667E-2,9.871589E-1,5.159367E-1,1.6673353E-2,1.2373075E-1,-5.6147706E-2,2.2284828E-1,-9.1014534E-1,-2.613869E-1,-1.0133406E0,-2.0366886E-1,1.0508362E0,-1.4369062E-1,1.14362426E-1,-1.7919336E-1,9.5873475E-2,-1.08450964E-1,1.10386E-2,9.3758506E-1,-1.8546553E-2,1.1599426E-1,-1.2456459E-1,8.8232756E-2,-6.763032E-2,7.026805E-2,7.776901E-2,-1.9202423E-1,5.967028E-2,-1.23282194E-1,-1.276251E-1,7.512028E-2,6.425545E-2,1.0015129E-1,6.4457975E-2,-2.055331E-1,3.9575603E-2,-1.14236526E-1,-1.1224127E-1,1.6345686E-1,3.8544483E-2,-1.0456442E-1,9.7490296E-2,-9.650198E-2],"split_indices":[9,36,34,18,8,61,24,61,40,45,28,7,87,23,89,36,64,51,43,59,0,19,0,0,0,9,14,74,44,0,0,0,0,0,0,0,0,0,0,0,0,0,0,0,0,0,0,0,0,0,0],"split_type":[0,0,0,0,0,0,0,0,0,0,0,0,0,0,0,0,0,0,0,0,0,0,0,0,0,0,0,0,0,0,0,0,0,0,0,0,0,0,0,0,0,0,0,0,0,0,0,0,0,0,0],"sum_hessian":[1.4265051E3,8.3588617E2,5.90619E2,2.9084824E2,5.450379E2,3.9598965E2,1.9462935E2,1.6379099E2,1.2705724E2,3.728038E2,1.7223412E2,1.5869473E1,3.8012018E2,1.5405527E2,4.0574078E1,1.3781355E2,2.5977446E1,8.809645E1,3.8960793E1,3.7169437E2,1.109425E0,1.6421666E2,8.017456E0,9.810336E0,6.059138E0,3.534265E2,2.6693676E1,9.0160706E1,6.3894566E1,3.609271E1,4.481367E0,1.223504E1,1.2557851E2,1.2615184E1,1.3362263E1,1.2075991E1,7.6020454E1,1.0456679E1,2.8504114E1,1.216055E2,2.5008887E2,1.5987067E2,4.3459935E0,5.9501257E0,3.4747638E2,1.7863604E1,8.830071E0,5.140148E1,3.8759228E1,6.1071888E1,2.8226788E0],"tree_param":{"num_deleted":"0","num_feature":"95","num_nodes":"51","size_leaf_vector":"1"}},{"base_weights":[-1.2181777E-2,-5.1163054E-1,5.7306236E-1,8.982505E-2,-9.07419E-1,8.1930995E-1,2.2904529E-1,9.544462E-1,-8.5309625E-2,-5.340826E-1,-1.0760047E0,-2.1009853E-1,8.362989E-1,-1.4683572E0,3.343727E-1,-1.1364831E-1,1.051779E0,-5.446222E-1,2.7287865E-1,-1.1560646E-4,-1.1248996E-1,-1.1423822E-1,-2.2947238E-1,8.5267067E-1,-1.8359332E-1,7.878331E-2,-2.3056567E0,4.589241E-1,-8.369775E-1,1.1344893E-1,-1.1759968E-1,8.530824E-3,-1.12382665E-1,3.5146326E-2,-1.2417226E-1,7.234834E-2,-8.981464E-2,-1.1079796E-1,1.0081994E-1,8.7752305E-2,-6.3264E-2,-2.9249838E-1,-1.3535115E-1,5.3777773E-2,-1.3098785E-1,-1.3031691E-1,9.9581346E-2],"categories":[],"categories_nodes":[],"categories_segments":[],"categories_sizes":[],"default_left":[0,0,0,0,0,0,0,0,0,0,0,0,0,0,0,0,0,0,0,0,0,0,0,0,0,0,0,0,0,0,0,0,0,0,0,0,0,0,0,0,0,0,0,0,0,0,0],"id":15,"left_children":[1,3,5,7,9,11,13,15,17,19,21,-1,23,25,27,-1,29,31,33,35,-1,-1,37,39,-1,-1,41,43,45,-1,-1,-1,-1,-1,-1,-1,-1,-1,-1,-1,-1,-1,-1,-1,-1,-1,-1],"loss_changes":[3.9442532E2,1.7339255E2,5.2447983E1,4.397334E1,2.7067444E1,1.9703918E1,4.7081615E1,1.114835E1,3.995489E1,4.3728683E1,1.6683594E1,0E0,1.7331024E1,3.0930237E1,3.6301216E1,0E0,1.004034E1,3.889704E1,1.6696056E1,4.86119E1,0E0,0E0,2.6319534E1,1.3801514E1,0E0,0E0,2.8193245E0,3.1831638E1,2.1817451E1,0E0,0E0,0E0,0E0,0E0,0E0,0E0,0E0,0E0,0E0,0E0,0E0,0E0,0E0,0E0,0E0,0E0,0E0],"parents":[2147483647,0,0,1,1,2,2,3,3,4,4,5,5,6,6,7,7,8,8,9,9,10,10,12,12,13,13,14,14,16,16,17,17,18,18,19,19,22,22,23,23,26,26,27,27,28,28],"right_children":[2,4,6,8,10,12,14,16,18,20,22,-1,24,26,28,-1,30,32,34,36,-1,-1,38,40,-1,-1,42,44,46,-1,-1,-1,-1,-1,-1,-1,-1,-1,-1,-1,-1,-1,-1,-1,-1,-1,-1],"split_conditions":[3.0574578E-1,-4.9202242E-1,3.4639947E-4,-1.565314E0,-1.1940808E-1,-1.2524751E-1,-9.0451755E-2,-3.7254207E-2,-7.3474854E-2,-7.676276E-2,8.624487E-1,-2.1009853E-1,-2.0620796E-1,-3.9757296E-1,3.4158867E-2,-1.1364831E-1,-6.1544772E-2,-1.9715728E-2,5.8863825E-1,-5.85578E-1,-1.1248996E-1,-1.1423822E-1,5.1628653E-2,1.9193602E0,-1.8359332E-1,7.878331E-2,-5.3056604E-1,1.8293241E0,-5.6007594E-2,1.1344893E-1,-1.1759968E-1,8.530824E-3,-1.12382665E-1,3.5146326E-2,-1.2417226E-1,7.234834E-2,-8.981464E-2,-1.1079796E-1,1.0081994E-1,8.7752305E-2,-6.3264E-2,-2.9249838E-1,-1.3535115E-1,5.3777773E-2,-1.3098785E-1,-1.3031691E-1,9.9581346E-2],"split_indices":[39,18,9,18,38,5,23,34,78,12,43,0,2,87,0,0,38,74,28,73,0,0,60,11,0,0,18,43,62,0,0,0,0,0,0,0,0,0,0,0,0,0,0,0,0,0,0],"split_type":[0,0,0,0,0,0,0,0,0,0,0,0,0,0,0,0,0,0,0,0,0,0,0,0,0,0,0,0,0,0,0,0,0,0,0,0,0,0,0,0,0,0,0,0,0,0,0],"sum_hessian":[1.3473848E3,7.2704694E2,6.203379E2,2.8885883E2,4.3818808E2,3.6073904E2,2.5959882E2,4.7905365E1,2.4095346E2,1.3761185E2,3.0057623E2,1.3769794E0,3.5936206E2,1.4411387E1,2.4518742E2,1.6559312E0,4.6249435E1,1.0534579E2,1.3560767E2,7.280896E1,6.480289E1,2.7839737E2,2.2178875E1,3.5785056E2,1.5115075E0,3.9166493E0,1.0494739E1,2.2217177E2,2.3015652E1,4.506699E1,1.1824436E0,5.0871616E1,5.447417E1,1.2964883E2,5.9588385E0,4.042799E1,3.238097E1,1.3032858E1,9.146017E0,3.5236398E2,5.486573E0,5.1032887E0,5.3914495E0,2.1335626E2,8.815505E0,1.8578869E1,4.4367814E0],"tree_param":{"num_deleted":"0","num_feature":"95","num_nodes":"47","size_leaf_vector":"1"}},{"base_weights":[-1.3113222E-2,4.118499E-1,-6.390824E-1,-6.1359406E-2,6.716208E-1,-9.643692E-1,-3.071916E-2,3.3927044E-1,-5.920273E-1,9.426201E-1,5.111357E-1,-1.0831355E0,-4.7707945E-1,2.1130389E-1,-9.6758926E-1,5.1976985E-1,-5.9518194E-1,-9.497029E-1,1.7978635E-1,9.811124E-1,-1.4235331E-1,-3.2010084E-1,5.3960615E-1,-1.1175555E-1,3.047774E-1,1.6631849E-1,-8.000176E-1,-2.157372E-1,8.1356287E-1,-1.21369615E-1,8.388704E-2,6.0373552E-2,-1.2701899E-1,-1.8521556E-1,7.171821E-2,5.478225E-2,-1.2070849E-1,-1.3186622E-1,6.828716E-2,1.0098722E-1,-1.4922134E-2,5.804928E-2,-1.9479905E-1,9.546127E-2,-7.782316E-2,-1.09905005E-1,3.4070995E-2,-1.1698671E-1,2.7494183E-2,9.056921E-2,-1.0521778E-1],"categories":[],"categories_nodes":[],"categories_segments":[],"categories_sizes":[],"default_left":[0,0,0,0,0,0,0,0,0,0,0,0,0,0,0,0,0,0,0,0,0,0,0,0,0,0,0,0,0,0,0,0,0,0,0,0,0,0,0,0,0,0,0,0,0,0,0,0,0,0,0],"id":16,"left_children":[1,3,5,7,9,11,13,15,17,19,21,23,25,27,29,31,33,35,37,39,-1,-1,41,-1,43,-1,45,47,49,-1,-1,-1,-1,-1,-1,-1,-1,-1,-1,-1,-1,-1,-1,-1,-1,-1,-1,-1,-1,-1,-1],"loss_changes":[3.4128305E2,9.39796E1,1.0263231E2,5.797462E1,2.0978577E1,1.9044525E1,4.1421173E1,2.6534086E1,3.254297E1,1.8004288E1,3.4711594E1,1.3285736E1,4.8346687E1,3.753971E1,1.7688786E1,2.0432117E1,4.3619354E1,3.1608017E1,2.9528091E1,6.0027466E0,0E0,0E0,3.2719307E1,0E0,5.9109383E0,0E0,2.0766499E1,4.0488567E1,1.1349438E1,0E0,0E0,0E0,0E0,0E0,0E0,0E0,0E0,0E0,0E0,0E0,0E0,0E0,0E0,0E0,0E0,0E0,0E0,0E0,0E0,0E0,0E0],"parents":[2147483647,0,0,1,1,2,2,3,3,4,4,5,5,6,6,7,7,8,8,9,9,10,10,11,11,12,12,13,13,14,14,15,15,16,16,17,17,18,18,19,19,22,22,24,24,26,26,27,27,28,28],"right_children":[2,4,6,8,10,12,14,16,18,20,22,24,26,28,30,32,34,36,38,40,-1,-1,42,-1,44,-1,46,48,50,-1,-1,-1,-1,-1,-1,-1,-1,-1,-1,-1,-1,-1,-1,-1,-1,-1,-1,-1,-1,-1,-1],"split_conditions":[1.0545113E-2,8.940192E-1,6.2901266E-2,-8.982129E-1,-1.4822971E0,9.4624877E-1,1.7163279E-2,-1.5323441E-2,3.2469667E-2,-2.7164398E-4,-1.184495E0,3.3869371E0,9.556344E-1,-5.6147706E-2,2.2284828E-1,-4.7203302E-1,-8.8199E-1,-1.0133406E0,-7.1262234E-1,1.9446738E0,-1.4235331E-1,-3.2010084E-1,-2.3036943E-1,-1.1175555E-1,1.647455E-2,1.6631849E-1,9.174413E-1,1.7483309E-2,5.5123996E-2,-1.21369615E-1,8.388704E-2,6.0373552E-2,-1.2701899E-1,-1.8521556E-1,7.171821E-2,5.478225E-2,-1.2070849E-1,-1.3186622E-1,6.828716E-2,1.0098722E-1,-1.4922134E-2,5.804928E-2,-1.9479905E-1,9.546127E-2,-7.782316E-2,-1.09905005E-1,3.4070995E-2,-1.1698671E-1,2.7494183E-2,9.056921E-2,-1.0521778E-1],"split_indices":[9,36,34,18,18,14,24,61,40,6,89,48,14,23,89,15,22,51,54,71,0,0,32,0,7,0,19,5,81,0,0,0,0,0,0,0,0,0,0,0,0,0,0,0,0,0,0,0,0,0,0],"split_type":[0,0,0,0,0,0,0,0,0,0,0,0,0,0,0,0,0,0,0,0,0,0,0,0,0,0,0,0,0,0,0,0,0,0,0,0,0,0,0,0,0,0,0,0,0,0,0,0,0,0,0],"sum_hessian":[1.2809629E3,7.631866E2,5.177763E2,2.707469E2,4.9243973E2,3.3700003E2,1.807763E2,1.544813E2,1.16265594E2,1.81344E2,3.110957E2,2.6997638E2,6.702366E1,1.4427896E2,3.649734E1,1.2984427E2,2.4637028E1,7.9290245E1,3.6975346E1,1.7901712E2,2.3268738E0,1.519672E0,3.0957605E2,2.636331E2,6.3432713E0,8.243028E0,5.878063E1,8.479531E1,5.948365E1,3.2410027E1,4.087314E0,1.246593E2,5.184964E0,1.2373989E1,1.2263038E1,1.1463533E1,6.782671E1,8.886271E0,2.8089073E1,1.7467921E2,4.337908E0,3.053243E2,4.251725E0,4.038572E0,2.3046992E0,4.6601074E1,1.2179558E1,2.8327686E1,5.646763E1,5.717495E1,2.3087003E0],"tree_param":{"num_deleted":"0","num_feature":"95","num_nodes":"51","size_leaf_vector":"1"}},{"base_weights":[-1.4038332E-2,-4.76049E-1,5.147221E-1,7.1736865E-2,-8.681222E-1,7.48889E-1,1.7666018E-1,9.2191815E-1,-8.403297E-2,-4.9184984E-1,-1.0467931E0,7.675605E-1,-1.326486E-1,7.200137E-1,-9.695741E-2,-1.5890001E-1,1.0779977E0,-6.9125456E-1,1.5352249E-1,6.3684424E-3,-1.0968447E-1,-1.1171609E-1,-1.8881978E-1,1.6912475E-1,8.2663774E-1,8.3628184E-1,-1.3372572E-1,3.8003668E-1,-1.026575E0,1.1210561E-1,5.537337E-2,2.159444E-2,-1.23512425E-1,2.319315E-2,-1.320868E-1,5.019436E-2,-1.1646116E-1,9.772141E-2,-1.0724515E-1,-2.6230052E-1,6.251982E-2,8.4244564E-2,-1.3374223E-1,8.976298E-2,-1.5006274E-1,5.6171555E-2,-1.7141306E-1,9.078377E-2,-1.3605581E-1],"categories":[],"categories_nodes":[],"categories_segments":[],"categories_sizes":[],"default_left":[0,0,0,0,0,0,0,0,0,0,0,0,0,0,0,0,0,0,0,0,0,0,0,0,0,0,0,0,0,0,0,0,0,0,0,0,0,0,0,0,0,0,0,0,0,0,0,0,0],"id":17,"left_children":[1,3,5,7,9,11,13,15,17,19,21,23,-1,25,27,-1,29,31,33,35,-1,-1,37,39,41,43,-1,45,47,-1,-1,-1,-1,-1,-1,-1,-1,-1,-1,-1,-1,-1,-1,-1,-1,-1,-1,-1,-1],"loss_changes":[2.9638916E2,1.3912294E2,4.4655685E1,3.5970356E1,2.486084E1,1.3958328E1,3.468526E1,1.8193115E1,3.327986E1,3.7205704E1,1.5186829E1,1.1583313E1,0E0,1.9799034E1,6.944612E1,0E0,2.8640366E-1,3.2264603E1,1.951117E1,4.0435783E1,0E0,0E0,2.2206514E1,4.118041E1,1.144223E1,1.203281E1,0E0,4.0399376E1,3.5528713E1,0E0,0E0,0E0,0E0,0E0,0E0,0E0,0E0,0E0,0E0,0E0,0E0,0E0,0E0,0E0,0E0,0E0,0E0,0E0,0E0],"parents":[2147483647,0,0,1,1,2,2,3,3,4,4,5,5,6,6,7,7,8,8,9,9,10,10,11,11,13,13,14,14,16,16,17,17,18,18,19,19,22,22,23,23,24,24,25,25,27,27,28,28],"right_children":[2,4,6,8,10,12,14,16,18,20,22,24,-1,26,28,-1,30,32,34,36,-1,-1,38,40,42,44,-1,46,48,-1,-1,-1,-1,-1,-1,-1,-1,-1,-1,-1,-1,-1,-1,-1,-1,-1,-1,-1,-1],"split_conditions":[3.0574578E-1,-4.9202242E-1,-2.356374E-2,-3.763591E0,-1.1940808E-1,1.2689438E-2,-7.9633623E-1,-5.355611E-1,-7.378319E-2,-7.676276E-2,8.624487E-1,-1.434697E-1,-1.326486E-1,-1.6582564E-1,1.3858084E-1,-1.5890001E-1,-7.296306E-2,-1.8595355E0,-1.2750483E-2,-1.502631E-1,-1.0968447E-1,-1.1171609E-1,-9.270053E-2,-1.1003404E-3,2.4660766E-2,1.8809372E0,-1.3372572E-1,8.2112074E-1,-1.2955087E0,1.1210561E-1,5.537337E-2,2.159444E-2,-1.23512425E-1,2.319315E-2,-1.320868E-1,5.019436E-2,-1.1646116E-1,9.772141E-2,-1.0724515E-1,-2.6230052E-1,6.251982E-2,8.4244564E-2,-1.3374223E-1,8.976298E-2,-1.5006274E-1,5.6171555E-2,-1.7141306E-1,9.078377E-2,-1.3605581E-1],"split_indices":[39,18,8,85,38,67,56,59,39,12,43,59,0,3,28,0,47,67,74,43,0,0,23,87,5,49,0,63,18,0,0,0,0,0,0,0,0,0,0,0,0,0,0,0,0,0,0,0,0],"split_type":[0,0,0,0,0,0,0,0,0,0,0,0,0,0,0,0,0,0,0,0,0,0,0,0,0,0,0,0,0,0,0,0,0,0,0,0,0,0,0,0,0,0,0,0,0,0,0,0,0],"sum_hessian":[1.2112498E3,6.4648E2,5.647698E2,2.7002753E2,3.7645245E2,3.3293735E2,2.3183244E2,4.105169E1,2.2897583E2,1.2241181E2,2.5404065E2,3.3059326E2,2.3440807E0,7.709824E1,1.5473419E2,1.8651711E0,3.918652E1,6.3852066E1,1.6512376E2,6.7672455E1,5.4739357E1,2.3450528E2,1.9535366E1,3.0050735E1,3.0054254E2,7.353581E1,3.5624306E0,1.0265321E2,5.2080982E1,3.516041E1,4.0261073E0,2.4158146E1,3.969392E1,1.5758594E2,7.537826E0,4.7950485E1,1.9721968E1,8.376237E0,1.1159128E1,3.5522437E0,2.6498491E1,2.9896936E2,1.5731807E0,7.225489E1,1.2809274E0,9.513185E1,7.521364E0,7.415069E0,4.4665913E1],"tree_param":{"num_deleted":"0","num_feature":"95","num_nodes":"49","size_leaf_vector":"1"}},{"base_weights":[-1.4987154E-2,-4.566606E-1,4.8809963E-1,-8.161854E-2,-1.0136663E0,7.645174E-1,2.1562329E-1,4.5310676E-1,-3.144771E-1,-1.09819494E-1,8.164324E-2,7.9022604E-1,-2.0095229E-1,3.3900902E-1,-7.0665085E-1,5.896788E-1,-1.5436657E-1,1.619529E-1,-7.035812E-1,-1.11089684E-1,8.1156677E-1,8.136499E-1,-1.3524315E-1,-2.8970158E-1,3.7337285E-1,-1.5990686E0,4.261828E-1,7.169219E-2,-6.555564E-2,-2.5730953E-2,8.8494085E-2,3.6481168E-2,-1.0743862E-1,-7.318126E-2,1.0822914E-1,-7.658037E-2,8.423602E-2,4.3075573E-2,-1.17634855E-1,-2.4055736E-1,-1.1572597E-1,-1.3426559E-1,9.788553E-2],"categories":[],"categories_nodes":[],"categories_segments":[],"categories_sizes":[],"default_left":[0,0,0,0,0,0,0,0,0,0,0,0,0,0,0,0,0,0,0,0,0,0,0,0,0,0,0,0,0,0,0,0,0,0,0,0,0,0,0,0,0,0,0],"id":18,"left_children":[1,3,5,7,9,11,13,15,17,-1,19,21,-1,23,25,27,-1,29,31,-1,33,35,-1,-1,37,39,41,-1,-1,-1,-1,-1,-1,-1,-1,-1,-1,-1,-1,-1,-1,-1,-1],"loss_changes":[2.5536313E2,1.2775601E2,4.0302063E1,4.5815205E1,2.2879974E1,2.0581116E1,3.1187916E1,3.136724E1,4.7593426E1,0E0,1.7062988E1,1.4380157E1,0E0,2.78313E1,3.3452286E1,1.7148033E1,0E0,3.5375248E1,5.6317245E1,0E0,5.845683E0,1.2542053E1,0E0,0E0,2.1752155E1,3.7518349E0,1.6049751E1,0E0,0E0,0E0,0E0,0E0,0E0,0E0,0E0,0E0,0E0,0E0,0E0,0E0,0E0,0E0,0E0],"parents":[2147483647,0,0,1,1,2,2,3,3,4,4,5,5,6,6,7,7,8,8,10,10,11,11,13,13,14,14,15,15,17,17,18,18,20,20,21,21,24,24,25,25,26,26],"right_children":[2,4,6,8,10,12,14,16,18,-1,20,22,-1,24,26,28,-1,30,32,-1,34,36,-1,-1,38,40,42,-1,-1,-1,-1,-1,-1,-1,-1,-1,-1,-1,-1,-1,-1,-1,-1],"split_conditions":[3.0574578E-1,-1.9606385E-1,-8.86732E-1,-1.0118172E0,1.21979855E-1,-1.9549185E-1,-1.394256E-2,1.7298426E-2,-1.1928664E-1,-1.09819494E-1,1.2301675E-1,6.3315006E-3,-2.0095229E-1,-1.3442964E-2,1.09944336E-1,1.4204283E-1,-1.5436657E-1,3.9966244E-2,-1.1112373E-1,-1.11089684E-1,-1.452784E-1,-2.0236914E-1,-1.3524315E-1,-2.8970158E-1,1.9888733E-2,1.0431232E-2,-1.852157E-2,7.169219E-2,-6.555564E-2,-2.5730953E-2,8.8494085E-2,3.6481168E-2,-1.0743862E-1,-7.318126E-2,1.0822914E-1,-7.658037E-2,8.423602E-2,4.3075573E-2,-1.17634855E-1,-2.4055736E-1,-1.1572597E-1,-1.3426559E-1,9.788553E-2],"split_indices":[39,0,0,17,34,67,8,24,38,0,0,9,0,24,30,28,0,25,92,0,51,61,0,0,6,9,40,0,0,0,0,0,0,0,0,0,0,0,0,0,0,0,0],"split_type":[0,0,0,0,0,0,0,0,0,0,0,0,0,0,0,0,0,0,0,0,0,0,0,0,0,0,0,0,0,0,0,0,0,0,0,0,0,0,0,0,0,0,0],"sum_hessian":[1.1472456E3,6.109598E2,5.3628577E2,3.658039E2,2.4515588E2,2.65321E2,2.7096475E2,1.1068539E2,2.5511852E2,2.2758943E2,1.756646E1,2.6359326E2,1.7277305E0,2.3954927E2,3.1415491E1,1.0425912E2,6.426265E0,1.14951935E2,1.4016658E2,6.4714875E0,1.1094973E1,2.6135635E2,2.2369304E0,1.641758E0,2.3790752E2,1.7342188E1,1.4073303E1,9.497814E1,9.280978E0,7.3166565E1,4.1785366E1,3.6117653E1,1.0404893E2,1.4015698E0,9.693403E0,4.2076025E0,2.5714874E2,2.3010912E2,7.7984047E0,4.564691E0,1.2777497E1,3.0100837E0,1.1063219E1],"tree_param":{"num_deleted":"0","num_feature":"95","num_nodes":"43","size_leaf_vector":"1"}},{"base_weights":[-1.5929444E-2,3.4244397E-1,-5.7717454E-1,5.0504733E-2,6.7481834E-1,-8.5345155E-1,5.7735294E-2,-8.3690196E-1,1.9285923E-1,7.0370424E-1,-2.4170695E-1,-3.8192073E-1,-1.0401556E0,2.9019225E-1,-9.119441E-1,5.633939E-1,-1.2290165E0,-3.53387E-1,3.8579133E-1,7.5447065E-1,-2.1782853E-1,-9.4327736E-1,7.001768E-1,6.651396E-1,-1.089427E-1,-1.0145552E0,5.238285E-1,8.8500425E-2,-1.22639455E-1,1.0490172E-1,-1.1817803E-1,8.291514E-2,-1.4525062E-1,2.8886396E-2,-1.1750801E-1,-2.2833979E-1,4.31765E-2,7.820175E-2,-2.973763E-1,-2.2739232E-1,7.778246E-2,6.896148E-2,-1.1562542E-1,-2.7997514E-2,1.2183044E-1,-5.6838114E-2,1.00478485E-1,-1.5523337E-1,8.7517016E-2,7.1592085E-2,-1.3780557E-1],"categories":[],"categories_nodes":[],"categories_segments":[],"categories_sizes":[],"default_left":[0,0,0,0,0,0,0,0,0,0,0,0,0,0,0,0,0,0,0,0,0,0,0,0,0,0,0,0,0,0,0,0,0,0,0,0,0,0,0,0,0,0,0,0,0,0,0,0,0,0,0],"id":19,"left_children":[1,3,5,7,9,11,13,15,17,19,-1,21,23,25,27,29,31,33,35,37,39,41,43,45,-1,47,49,-1,-1,-1,-1,-1,-1,-1,-1,-1,-1,-1,-1,-1,-1,-1,-1,-1,-1,-1,-1,-1,-1,-1,-1],"loss_changes":[2.2005125E2,6.475747E1,7.483342E1,4.5205257E1,2.958046E1,2.5761292E1,2.9613832E1,2.7860317E1,3.2605263E1,1.4669083E1,0E0,5.2815434E1,1.8560211E1,3.277868E1,1.5448397E1,1.0994362E1,1.9129429E1,4.3051876E1,2.8983013E1,3.2527847E1,3.64971E1,2.0605778E1,1.5526253E1,3.3286474E0,0E0,1.8031475E1,3.400544E1,0E0,0E0,0E0,0E0,0E0,0E0,0E0,0E0,0E0,0E0,0E0,0E0,0E0,0E0,0E0,0E0,0E0,0E0,0E0,0E0,0E0,0E0,0E0,0E0],"parents":[2147483647,0,0,1,1,2,2,3,3,4,4,5,5,6,6,7,7,8,8,9,9,11,11,12,12,13,13,14,14,15,15,16,16,17,17,18,18,19,19,20,20,21,21,22,22,23,23,25,25,26,26],"right_children":[2,4,6,8,10,12,14,16,18,20,-1,22,24,26,28,30,32,34,36,38,40,42,44,46,-1,48,50,-1,-1,-1,-1,-1,-1,-1,-1,-1,-1,-1,-1,-1,-1,-1,-1,-1,-1,-1,-1,-1,-1,-1,-1],"split_conditions":[-1.12064846E-1,1.3164958E0,2.7605233E-1,-4.1805023E-1,2.1602004E0,-1.9836009E-1,1.6415467E-2,-8.500878E-1,-4.440232E-2,1.1841331E-1,-2.4170695E-1,-1.2587245E-1,-7.958433E-3,1.6034178E-2,-7.979598E-3,-2.4395286E-1,-1.1129472E0,-1.4948657E0,-2.0236914E-1,1.9193602E0,1.833568E-1,-1.9033423E-2,1.673267E-2,2.0637298E-2,-1.089427E-1,2.3242764E-2,2.2725752E-2,8.8500425E-2,-1.22639455E-1,1.0490172E-1,-1.1817803E-1,8.291514E-2,-1.4525062E-1,2.8886396E-2,-1.1750801E-1,-2.2833979E-1,4.31765E-2,7.820175E-2,-2.973763E-1,-2.2739232E-1,7.778246E-2,6.896148E-2,-1.1562542E-1,-2.7997514E-2,1.2183044E-1,-5.6838114E-2,1.00478485E-1,-1.5523337E-1,8.7517016E-2,7.1592085E-2,-1.3780557E-1],"split_indices":[67,36,39,69,71,2,24,56,39,79,0,42,27,5,9,34,61,67,61,11,56,27,9,5,0,6,5,0,0,0,0,0,0,0,0,0,0,0,0,0,0,0,0,0,0,0,0,0,0,0,0],"split_type":[0,0,0,0,0,0,0,0,0,0,0,0,0,0,0,0,0,0,0,0,0,0,0,0,0,0,0,0,0,0,0,0,0,0,0,0,0,0,0,0,0,0,0,0,0,0,0,0,0,0,0],"sum_hessian":[1.092063E3,6.6672626E2,4.2533676E2,3.5556744E2,3.1115884E2,2.9613242E2,1.2920435E2,4.8479275E1,3.0708817E2,3.09044E2,2.1148374E0,8.485992E1,2.112725E2,1.04785355E2,2.4418997E1,1.05099535E1,3.7969322E1,7.993566E1,2.271525E2,2.930798E2,1.5964206E1,5.595868E1,2.8901237E1,5.5818954E0,2.056906E2,1.54062605E1,8.937909E1,3.3664935E0,2.1052504E1,8.534103E0,1.9758499E0,3.4536684E0,3.451565E1,4.5230835E1,3.4704826E1,3.0221393E0,2.2413036E2,2.9171463E2,1.3651514E0,4.789564E0,1.1174642E1,6.198306E0,4.9760372E1,1.0153433E1,1.8747803E1,1.059728E0,4.522167E0,1.2132213E1,3.2740479E0,8.174621E1,7.6328797E0],"tree_param":{"num_deleted":"0","num_feature":"95","num_nodes":"51","size_leaf_vector":"1"}},{"base_weights":[-1.6970582E-2,1.9243494E-1,-8.975017E-1,5.443677E-1,-1.1316025E-1,-1.0723692E-1,5.338932E-2,6.161338E-1,-2.7863646E-1,2.779962E-1,-3.9052182E-1,5.334961E-1,-1.1016132E-1,6.379424E-1,-1.1979701E-1,8.797008E-1,-1.3360173E-1,3.3840585E-1,-1.6750287E-1,-5.7391834E-1,2.944051E-1,1.05200484E-1,-2.9758728E-1,6.545859E-2,-1.6012952E-1,-8.071987E-2,1.0527506E-1,6.903759E-2,-1.3389203E-3,-1.099472E-1,-3.3928417E-2,5.924922E-2,-1.340891E-1,-1.006843E-1,8.677445E-2],"categories":[],"categories_nodes":[],"categories_segments":[],"categories_sizes":[],"default_left":[0,0,0,0,0,0,0,0,0,0,0,0,0,0,0,0,0,0,0,0,0,0,0,0,0,0,0,0,0,0,0,0,0,0,0],"id":20,"left_children":[1,3,5,7,9,-1,11,13,15,17,19,21,-1,23,-1,25,-1,27,-1,29,31,-1,33,-1,-1,-1,-1,-1,-1,-1,-1,-1,-1,-1,-1],"loss_changes":[1.9117935E2,9.015488E1,3.3180084E1,2.3177208E1,4.8842293E1,0E0,1.8274153E1,1.495047E1,4.028222E1,2.2623474E1,3.3235764E1,1.0311989E1,0E0,1.4277313E1,0E0,5.473792E0,0E0,2.2566105E1,0E0,2.5273956E1,2.8218937E1,0E0,8.886106E0,0E0,0E0,0E0,0E0,0E0,0E0,0E0,0E0,0E0,0E0,0E0,0E0],"parents":[2147483647,0,0,1,1,2,2,3,3,4,4,6,6,7,7,8,8,9,9,10,10,11,11,13,13,15,15,17,17,19,19,20,20,22,22],"right_children":[2,4,6,8,10,-1,12,14,16,18,20,22,-1,24,-1,26,-1,28,-1,30,32,-1,34,-1,-1,-1,-1,-1,-1,-1,-1,-1,-1,-1,-1],"split_conditions":[6.8963066E-2,-1.188861E0,3.6189068E-2,2.1705656E-1,-9.707431E-1,-1.0723692E-1,-2.6838318E-1,2.2745671E0,-8.0378616E-1,-2.4168977E-1,-5.8220353E-2,-3.9794106E-2,-1.1016132E-1,2.2133439E0,-1.1979701E-1,-6.5401755E-2,-1.3360173E-1,-4.355655E-2,-1.6750287E-1,-3.299379E-2,5.0882455E-3,1.05200484E-1,1.7735285E0,6.545859E-2,-1.6012952E-1,-8.071987E-2,1.0527506E-1,6.903759E-2,-1.3389203E-3,-1.099472E-1,-3.3928417E-2,5.924922E-2,-1.340891E-1,-1.006843E-1,8.677445E-2],"split_indices":[85,37,34,14,0,0,17,44,56,51,51,91,0,71,0,23,0,92,0,39,61,0,36,0,0,0,0,0,0,0,0,0,0,0,0],"split_type":[0,0,0,0,0,0,0,0,0,0,0,0,0,0,0,0,0,0,0,0,0,0,0,0,0,0,0,0,0,0,0,0,0,0,0],"sum_hessian":[1.0348948E3,8.3669556E2,1.981992E2,3.8850272E2,4.4819287E2,1.6730441E2,3.0894798E1,3.5757358E2,3.092914E1,1.8594987E2,2.62243E2,2.2203455E1,8.691343E0,3.5396664E2,3.6069245E0,1.4840137E1,1.6089003E1,1.8117268E2,4.7771845E0,2.0698314E2,5.525987E1,1.3509267E1,8.694188E0,3.520576E2,1.9090455E0,1.0397773E0,1.3800359E1,9.008273E1,9.108996E1,6.2748287E1,1.4423485E2,4.7279327E1,7.980543E0,5.4892626E0,3.2049255E0],"tree_param":{"num_deleted":"0","num_feature":"95","num_nodes":"35","size_leaf_vector":"1"}},{"base_weights":[-1.7270988E-2,1.7873861E-1,-8.873926E-1,-1.9047141E-1,4.3732545E-1,-1.0639532E-1,5.0669074E-2,2.5564018E-1,-4.8834947E-1,6.49812E-1,1.431196E-1,5.171617E-1,-1.0767466E-1,4.333255E-1,-6.1910737E-1,-7.198445E-1,3.3300865E-1,8.972287E-1,4.6585414E-1,7.223437E-1,-1.4218894E-1,1.0152396E-1,-2.8779766E-1,4.995611E-2,-1.4974171E-1,-1.7727996E-1,6.423939E-2,1.0435589E-2,-8.773511E-2,-1.14605725E-1,8.509778E-2,-2.417389E-3,9.484107E-2,-1.4078245E-1,5.3765852E-2,8.038347E-2,-1.3909909E-1,3.5574596E-2,-7.414588E-2,-9.825271E-2,8.45161E-2],"categories":[],"categories_nodes":[],"categories_segments":[],"categories_sizes":[],"default_left":[0,0,0,0,0,0,0,0,0,0,0,0,0,0,0,0,0,0,0,0,0,0,0,0,0,0,0,0,0,0,0,0,0,0,0,0,0,0,0,0,0],"id":21,"left_children":[1,3,5,7,9,-1,11,13,15,17,19,21,-1,23,25,27,29,31,33,35,37,-1,39,-1,-1,-1,-1,-1,-1,-1,-1,-1,-1,-1,-1,-1,-1,-1,-1,-1,-1],"loss_changes":[1.6918098E2,7.7383896E1,3.025888E1,4.45346E1,2.969329E1,0E0,1.6252033E1,2.1167376E1,3.8407E1,1.2160988E1,3.3335037E1,9.026125E0,0E0,1.5115427E1,3.4777164E1,2.0461487E1,3.5311966E1,5.530098E0,2.2363182E1,1.2575527E1,4.07162E1,0E0,7.997693E0,0E0,0E0,0E0,0E0,0E0,0E0,0E0,0E0,0E0,0E0,0E0,0E0,0E0,0E0,0E0,0E0,0E0,0E0],"parents":[2147483647,0,0,1,1,2,2,3,3,4,4,6,6,7,7,8,8,9,9,10,10,11,11,13,13,14,14,15,15,16,16,17,17,18,18,19,19,20,20,22,22],"right_children":[2,4,6,8,10,-1,12,14,16,18,20,22,-1,24,26,28,30,32,34,36,38,-1,40,-1,-1,-1,-1,-1,-1,-1,-1,-1,-1,-1,-1,-1,-1,-1,-1,-1,-1],"split_conditions":[6.8963066E-2,8.940192E-1,3.6189068E-2,-8.982129E-1,-2.356374E-2,-1.0639532E-1,-2.6838318E-1,-1.5323441E-2,-5.8220353E-2,-1.4822971E0,-7.9633623E-1,-3.9794106E-2,-1.0767466E-1,1.7163279E-2,-8.8199E-1,-4.305573E-2,-3.6705205E-1,-1.410544E-1,-1.2955087E0,-1.6582564E-1,1.0164557E-4,1.0152396E-1,1.7735285E0,4.995611E-2,-1.4974171E-1,-1.7727996E-1,6.423939E-2,1.0435589E-2,-8.773511E-2,-1.14605725E-1,8.509778E-2,-2.417389E-3,9.484107E-2,-1.4078245E-1,5.3765852E-2,8.038347E-2,-1.3909909E-1,3.5574596E-2,-7.414588E-2,-9.825271E-2,8.45161E-2],"split_indices":[85,36,34,18,8,0,17,61,51,18,56,91,0,24,22,25,56,61,18,3,28,0,36,0,0,0,0,0,0,0,0,0,0,0,0,0,0,0,0,0,0],"split_type":[0,0,0,0,0,0,0,0,0,0,0,0,0,0,0,0,0,0,0,0,0,0,0,0,0,0,0,0,0,0,0,0,0,0,0,0,0,0,0,0,0],"sum_hessian":[9.900303E2,8.086604E2,1.8136986E2,3.3319226E2,4.7546814E2,1.5252719E2,2.8842655E1,1.3346007E2,1.9973221E2,2.7537402E2,2.0009413E2,2.0784079E1,8.058578E0,1.1134704E2,2.2113022E1,1.559127E2,4.3819508E1,1.15778564E2,1.5959544E2,6.55285E1,1.3456563E2,1.2678118E1,8.105961E0,1.0837057E2,2.976476E0,1.1338348E1,1.0774673E1,2.506901E1,1.3084369E2,1.1050917E1,3.2768593E1,6.120579E0,1.0965799E2,5.203662E0,1.5439178E2,6.3692146E1,1.8363589E0,7.3718834E1,6.0846794E1,5.10708E0,2.9988804E0],"tree_param":{"num_deleted":"0","num_feature":"95","num_nodes":"41","size_leaf_vector":"1"}},{"base_weights":[-1.7101644E-2,1.6699907E-1,-8.778449E-1,6.554417E-1,-1.3738434E-2,-1.05631046E-1,4.795023E-2,6.930489E-1,-2.9673716E-1,4.7778717E-1,-1.9309027E-1,-5.901329E-1,8.4355867E-1,-1.6461287E-1,7.2692126E-1,-1.4201276E-1,5.6480247E-1,4.578824E-2,-5.2822095E-1,-1.0833124E-1,8.462005E-2,1.0486817E-1,3.212105E-1,7.495826E-2,-1.0411377E-1,6.1380286E-2,-1.21495716E-1,1.0110196E-2,-1.6069616E-1,3.4828067E-2,-9.619697E-2,8.233585E-2,-6.686417E-2],"categories":[],"categories_nodes":[],"categories_segments":[],"categories_sizes":[],"default_left":[0,0,0,0,0,0,0,0,0,0,0,0,0,0,0,0,0,0,0,0,0,0,0,0,0,0,0,0,0,0,0,0,0],"id":22,"left_children":[1,3,5,7,9,-1,11,13,-1,15,17,19,21,-1,23,-1,25,27,29,-1,-1,-1,31,-1,-1,-1,-1,-1,-1,-1,-1,-1,-1],"loss_changes":[1.5009996E2,6.8902626E1,2.7625717E1,3.0776329E1,5.0394318E1,0E0,1.4676686E1,1.7791405E1,0E0,2.6041985E1,3.354907E1,1.2312651E1,1.0391226E0,0E0,9.080063E0,0E0,1.3552189E1,2.259833E1,6.662135E1,0E0,0E0,0E0,3.0669017E0,0E0,0E0,0E0,0E0,0E0,0E0,0E0,0E0,0E0,0E0],"parents":[2147483647,0,0,1,1,2,2,3,3,4,4,6,6,7,7,9,9,10,10,11,11,12,12,14,14,16,16,17,17,18,18,22,22],"right_children":[2,4,6,8,10,-1,12,14,-1,16,18,20,22,-1,24,-1,26,28,30,-1,-1,-1,32,-1,-1,-1,-1,-1,-1,-1,-1,-1,-1],"split_conditions":[6.8963066E-2,-5.7266647E-1,3.6189068E-2,2.0421035E0,-7.9633623E-1,-1.05631046E-1,1.2983392E-1,-9.3857056E-1,-2.9673716E-1,-4.4367933E-1,-1.1643279E-1,1.0818445E-2,-4.6134205E-3,-1.6461287E-1,4.9134073E-1,-1.4201276E-1,7.513513E-1,5.773624E-1,-1.00611635E-1,-1.0833124E-1,8.462005E-2,1.0486817E-1,-2.2147637E-2,7.495826E-2,-1.0411377E-1,6.1380286E-2,-1.21495716E-1,1.0110196E-2,-1.6069616E-1,3.4828067E-2,-9.619697E-2,8.233585E-2,-6.686417E-2],"split_indices":[85,89,34,71,56,0,30,36,0,43,38,8,27,0,64,0,28,55,34,0,0,0,8,0,0,0,0,0,0,0,0,0,0],"split_type":[0,0,0,0,0,0,0,0,0,0,0,0,0,0,0,0,0,0,0,0,0,0,0,0,0,0,0,0,0,0,0,0,0],"sum_hessian":[9.4529626E2,7.793997E2,1.6589651E2,2.097971E2,5.6960266E2,1.3896689E2,2.6929626E1,2.0844205E2,1.3550669E0,1.5183228E2,4.1777036E2,1.5087564E1,1.1842062E1,2.2958474E0,2.061462E2,5.984403E0,1.4584787E2,2.4441595E2,1.733544E2,1.1414172E1,3.6733916E0,7.779476E0,4.0625863E0,2.041062E2,2.0400016E0,1.4257755E2,3.270329E0,2.3740924E2,7.006711E0,5.7452934E1,1.15901474E2,2.8068721E0,1.255714E0],"tree_param":{"num_deleted":"0","num_feature":"95","num_nodes":"33","size_leaf_vector":"1"}},{"base_weights":[-1.7405052E-2,1.5418668E-1,-8.685146E-1,4.7193566E-1,-1.112617E-1,-1.0493375E-1,4.9787026E-2,5.379333E-1,-3.0416912E-1,2.9753134E-1,-3.2987267E-1,4.9602965E-1,-1.03083335E-1,7.026598E-1,2.780556E-1,8.094597E-1,-1.2796068E-1,4.6394807E-1,-9.718543E-1,-2.0830935E-1,-1.442657E0,-8.329773E-2,7.548272E-1,7.535036E-2,-7.3182695E-2,3.5596434E-2,-2.8244528E-1,-8.009141E-2,1.002048E-1,7.533545E-2,-6.260406E-3,-1.590402E-1,6.72031E-2,-8.701911E-2,5.2307057E-3,-1.13160454E-1,-2.342617E-1,9.25084E-2,-6.7764215E-2],"categories":[],"categories_nodes":[],"categories_segments":[],"categories_sizes":[],"default_left":[0,0,0,0,0,0,0,0,0,0,0,0,0,0,0,0,0,0,0,0,0,0,0,0,0,0,0,0,0,0,0,0,0,0,0,0,0,0,0],"id":23,"left_children":[1,3,5,7,9,-1,11,13,15,17,19,21,-1,23,25,27,-1,29,31,33,35,-1,37,-1,-1,-1,-1,-1,-1,-1,-1,-1,-1,-1,-1,-1,-1,-1,-1],"loss_changes":[1.3283203E2,6.390405E1,2.5391754E1,1.7822395E1,3.7030106E1,0E0,1.3077971E1,1.3422005E1,3.1080189E1,3.0980774E1,3.618839E1,7.2045603E0,0E0,1.4703384E1,3.1234447E1,4.997752E0,0E0,1.9621067E1,1.8429987E1,4.219433E1,4.73835E0,0E0,4.657668E0,0E0,0E0,0E0,0E0,0E0,0E0,0E0,0E0,0E0,0E0,0E0,0E0,0E0,0E0,0E0,0E0],"parents":[2147483647,0,0,1,1,2,2,3,3,4,4,6,6,7,7,8,8,9,9,10,10,11,11,13,13,14,14,15,15,17,17,18,18,19,19,20,20,22,22],"right_children":[2,4,6,8,10,-1,12,14,16,18,20,22,-1,24,26,28,-1,30,32,34,36,-1,38,-1,-1,-1,-1,-1,-1,-1,-1,-1,-1,-1,-1,-1,-1,-1,-1],"split_conditions":[6.8963066E-2,-1.188861E0,3.6189068E-2,2.1705656E-1,-7.8521824E-1,-1.0493375E-1,-2.6838318E-1,-4.4020745E-1,-8.0378616E-1,1.5242876E-1,4.3584952E-1,1.2742943E-1,-1.03083335E-1,7.028836E-1,1.9501624E0,-6.5401755E-2,-1.2796068E-1,-1.9386822E-2,3.8568544E-1,-5.5238605E-1,1.6353409E-1,-8.329773E-2,1.0028527E0,7.535036E-2,-7.3182695E-2,3.5596434E-2,-2.8244528E-1,-8.009141E-2,1.002048E-1,7.533545E-2,-6.260406E-3,-1.590402E-1,6.72031E-2,-8.701911E-2,5.2307057E-3,-1.13160454E-1,-2.342617E-1,9.25084E-2,-6.7764215E-2],"split_indices":[85,37,34,14,67,0,17,81,56,28,69,85,0,28,11,23,0,74,64,63,90,0,71,0,0,0,0,0,0,0,0,0,0,0,0,0,0,0,0],"split_type":[0,0,0,0,0,0,0,0,0,0,0,0,0,0,0,0,0,0,0,0,0,0,0,0,0,0,0,0,0,0,0,0,0,0,0,0,0,0,0],"sum_hessian":[9.076214E2,7.5601953E2,1.5160184E2,3.4375613E2,4.122634E2,1.26541794E2,2.506005E1,3.1709796E2,2.6658176E1,1.4352216E2,2.6874124E2,1.8118843E1,6.9412065E0,1.93036E2,1.24061966E2,1.2526823E1,1.4131353E1,1.2744818E2,1.6073977E1,2.4334483E2,2.5396393E1,2.591586E0,1.5527257E1,1.8688673E2,6.149265E0,1.21886475E2,2.17549E0,1.0006838E0,1.152614E1,8.196655E1,4.5481632E1,1.1703002E1,4.370975E0,6.808695E1,1.7525789E2,2.0550823E1,4.84557E0,1.4194381E1,1.3328758E0],"tree_param":{"num_deleted":"0","num_feature":"95","num_nodes":"39","size_leaf_vector":"1"}},{"base_weights":[-1.780338E-2,1.4245121E-1,-8.600683E-1,7.125017E-1,1.1289145E-2,-1.0429434E-1,4.1103438E-2,7.5723577E-1,-1.3587931E-1,4.5283255E-1,-1.44611E-1,-5.6987005E-1,8.007041E-1,7.873398E-1,-1.0648193E-1,-2.0420732E0,5.215896E-1,-1.0999975E0,-6.959974E-2,-1.0460094E-1,7.9603404E-2,1.0023439E-1,2.8610343E-1,-2.9092556E-2,8.4173486E-2,-8.3087884E-2,-2.7310959E-1,-1.5957366E-1,5.8342934E-2,-1.626984E-1,6.713088E-2,-1.8484188E-2,5.9160408E-2,7.785792E-2,-6.313137E-2],"categories":[],"categories_nodes":[],"categories_segments":[],"categories_sizes":[],"default_left":[0,0,0,0,0,0,0,0,0,0,0,0,0,0,0,0,0,0,0,0,0,0,0,0,0,0,0,0,0,0,0,0,0,0,0],"id":24,"left_children":[1,3,5,7,9,-1,11,13,-1,15,17,19,21,23,-1,25,27,29,31,-1,-1,-1,33,-1,-1,-1,-1,-1,-1,-1,-1,-1,-1,-1,-1],"loss_changes":[1.1796429E2,5.489863E1,2.306585E1,1.3754921E1,4.123025E1,0E0,1.1840188E1,8.247833E0,0E0,2.7875305E1,3.1650654E1,1.00539875E1,8.909869E-1,8.072777E0,0E0,1.3986797E0,2.0950157E1,3.1113548E1,3.1469297E1,0E0,0E0,0E0,2.5675168E0,0E0,0E0,0E0,0E0,0E0,0E0,0E0,0E0,0E0,0E0,0E0,0E0],"parents":[2147483647,0,0,1,1,2,2,3,3,4,4,6,6,7,7,9,9,10,10,11,11,12,12,13,13,15,15,16,16,17,17,18,18,22,22],"right_children":[2,4,6,8,10,-1,12,14,-1,16,18,20,22,24,-1,26,28,30,32,-1,-1,-1,34,-1,-1,-1,-1,-1,-1,-1,-1,-1,-1,-1,-1],"split_conditions":[6.8963066E-2,-1.4822971E0,3.6189068E-2,-2.7164398E-4,-7.9633623E-1,-1.0429434E-1,1.2983392E-1,1.00987434E-1,-1.3587931E-1,-5.3649694E-1,-1.11384615E-2,1.0818445E-2,-4.6134205E-3,-1.410544E-1,-1.0648193E-1,8.823147E-1,-5.0591594E-1,4.6929815E-1,9.088768E-1,-1.0460094E-1,7.9603404E-2,1.0023439E-1,-2.2147637E-2,-2.9092556E-2,8.4173486E-2,-8.3087884E-2,-2.7310959E-1,-1.5957366E-1,5.8342934E-2,-1.626984E-1,6.713088E-2,-1.8484188E-2,5.9160408E-2,7.785792E-2,-6.313137E-2],"split_indices":[85,18,34,6,56,0,30,80,0,79,24,8,27,61,0,36,43,64,78,0,0,0,8,0,0,0,0,0,0,0,0,0,0,0,0],"split_type":[0,0,0,0,0,0,0,0,0,0,0,0,0,0,0,0,0,0,0,0,0,0,0,0,0,0,0,0,0,0,0,0,0,0,0],"sum_hessian":[8.720519E2,7.333508E2,1.3870103E2,1.363445E2,5.9700635E2,1.1517186E2,2.3529177E1,1.340831E2,2.261401E0,1.5528905E2,4.417173E2,1.317879E1,1.0350387E1,1.3246243E2,1.6206601E0,3.3951015E0,1.5189394E2,3.116154E1,4.1055573E2,9.945943E0,3.2328475E0,6.7555156E0,3.5948713E0,6.1525702E0,1.2630986E2,2.0309277E0,1.3641739E0,3.606512E0,1.4828743E2,2.4079157E1,7.0823827E0,3.502335E2,6.032224E1,2.4376564E0,1.1572149E0],"tree_param":{"num_deleted":"0","num_feature":"95","num_nodes":"35","size_leaf_vector":"1"}},{"base_weights":[-1.7450854E-2,1.9217105E-1,-6.087366E-1,5.820079E-1,3.0686252E-2,-1.0776191E0,-3.4330703E-2,6.226234E-1,-2.489795E-1,5.1713073E-1,-1.2267094E-1,-1.8561739E0,-1.04105905E-1,4.2659897E-1,-6.1588293E-1,-1.4756918E-1,6.577474E-1,6.087552E-1,-1.3332362E-1,-1.2363166E0,-3.252213E-2,-6.0499497E-2,-2.0996797E-1,-1.533203E-1,5.7681394E-1,3.6594588E-1,-1.1565633E-1,-1.4393431E-1,6.787059E-2,-2.0191853E-1,6.639106E-2,9.022103E-2,-1.7703936E-1,-1.4764736E-2,6.275057E-2,-9.851198E-2,6.6544436E-2,7.5121425E-2,-9.1969155E-2],"categories":[],"categories_nodes":[],"categories_segments":[],"categories_sizes":[],"default_left":[0,0,0,0,0,0,0,0,0,0,0,0,0,0,0,0,0,0,0,0,0,0,0,0,0,0,0,0,0,0,0,0,0,0,0,0,0,0,0],"id":25,"left_children":[1,3,5,7,9,11,13,15,-1,17,19,21,-1,23,25,-1,27,29,-1,31,33,-1,-1,-1,35,37,-1,-1,-1,-1,-1,-1,-1,-1,-1,-1,-1,-1,-1],"loss_changes":[1.0482131E2,3.929087E1,5.957569E1,2.4361721E1,3.307962E1,1.5353851E0,2.7204447E1,1.4329201E1,0E0,1.882941E1,3.3822865E1,5.414963E-3,0E0,1.7564507E1,2.423136E1,0E0,8.842552E0,1.6117382E1,0E0,3.041639E1,2.3881516E1,0E0,0E0,0E0,8.041399E0,8.955954E0,0E0,0E0,0E0,0E0,0E0,0E0,0E0,0E0,0E0,0E0,0E0,0E0,0E0],"parents":[2147483647,0,0,1,1,2,2,3,3,4,4,5,5,6,6,7,7,9,9,10,10,11,11,13,13,14,14,16,16,17,17,19,19,20,20,24,24,25,25],"right_children":[2,4,6,8,10,12,14,16,-1,18,20,22,-1,24,26,-1,28,30,-1,32,34,-1,-1,-1,36,38,-1,-1,-1,-1,-1,-1,-1,-1,-1,-1,-1,-1,-1],"split_conditions":[-1.9836009E-1,-5.7266647E-1,3.6189068E-2,2.0421035E0,-1.0019845E-1,-9.6604176E-2,-4.2962562E-2,-9.3857056E-1,-2.489795E-1,5.5401844E-1,-1.3442964E-2,8.2212013E-1,-1.04105905E-1,-8.2385965E-2,-1.3956405E0,-1.4756918E-1,-2.5584168E0,-4.747734E-2,-1.3332362E-1,-4.499334E0,-2.692263E-2,-6.0499497E-2,-2.0996797E-1,-1.533203E-1,-5.952669E-1,6.63092E-1,-1.1565633E-1,-1.4393431E-1,6.787059E-2,-2.0191853E-1,6.639106E-2,9.022103E-2,-1.7703936E-1,-1.4764736E-2,6.275057E-2,-9.851198E-2,6.6544436E-2,7.5121425E-2,-9.1969155E-2],"split_indices":[2,89,34,71,87,89,61,36,0,28,24,36,0,2,37,0,19,68,0,1,51,0,0,0,64,55,0,0,0,0,0,0,0,0,0,0,0,0,0],"split_type":[0,0,0,0,0,0,0,0,0,0,0,0,0,0,0,0,0,0,0,0,0,0,0,0,0,0,0,0,0,0,0,0,0,0,0,0,0,0,0],"sum_hessian":[8.4375464E2,6.234167E2,2.2033795E2,1.8183905E2,4.4157764E2,1.2082968E2,9.950827E1,1.8025305E2,1.5860034E0,1.0527534E2,3.363023E2,3.1871917E0,1.1764249E2,5.5659683E1,4.384859E1,2.292374E0,1.7796068E2,1.0094772E2,4.32761E0,2.4232613E1,3.120697E2,1.0869187E0,2.1002731E0,3.3070493E0,5.235263E1,1.5686477E1,2.8162113E1,1.0912911E0,1.7686938E2,1.343143E0,9.960458E1,4.704755E0,1.9527857E1,2.663823E2,4.5687386E1,2.2680395E0,5.0084595E1,1.2389415E1,3.2970622E0],"tree_param":{"num_deleted":"0","num_feature":"95","num_nodes":"39","size_leaf_vector":"1"}},{"base_weights":[-1.8406251E-2,1.1945642E-1,-8.374975E-1,6.5965414E-1,3.954469E-3,-1.03190675E-1,5.8123633E-2,7.23818E-1,-8.3968675E-1,4.0358463E-1,-1.3141361E-1,-5.437813E-1,7.819995E-1,7.557086E-1,-1.00580886E-1,-1.7992455E-1,6.9369495E-2,-1.8855987E0,4.7156125E-1,-1.0062687E0,-6.6545E-2,-1.0138883E-1,7.509666E-2,9.7624265E-2,2.63818E-1,-3.0400505E-2,8.1572145E-2,-7.9918616E-2,-2.3752847E-1,-1.5432774E-1,5.3141046E-2,6.511684E-3,-1.8440083E-1,6.9147865E-3,-5.6911416E-2,7.394719E-2,-5.9636306E-2],"categories":[],"categories_nodes":[],"categories_segments":[],"categories_sizes":[],"default_left":[0,0,0,0,0,0,0,0,0,0,0,0,0,0,0,0,0,0,0,0,0,0,0,0,0,0,0,0,0,0,0,0,0,0,0,0,0],"id":26,"left_children":[1,3,5,7,9,-1,11,13,15,17,19,21,23,25,-1,-1,-1,27,29,31,33,-1,-1,-1,35,-1,-1,-1,-1,-1,-1,-1,-1,-1,-1,-1,-1],"loss_changes":[9.2057465E1,4.3542168E1,2.0508705E1,1.2434048E1,3.1211468E1,0E0,9.9640255E0,7.292122E0,9.352135E0,2.360541E1,2.4392025E1,8.396127E0,7.8415966E-1,7.6791687E0,0E0,0E0,0E0,4.477787E-1,1.8012272E1,2.675932E1,2.7474924E1,0E0,0E0,0E0,2.156188E0,0E0,0E0,0E0,0E0,0E0,0E0,0E0,0E0,0E0,0E0,0E0,0E0],"parents":[2147483647,0,0,1,1,2,2,3,3,4,4,6,6,7,7,8,8,9,9,10,10,11,11,12,12,13,13,17,17,18,18,19,19,20,20,24,24],"right_children":[2,4,6,8,10,-1,12,14,16,18,20,22,24,26,-1,-1,-1,28,30,32,34,-1,-1,-1,36,-1,-1,-1,-1,-1,-1,-1,-1,-1,-1,-1,-1],"split_conditions":[6.8963066E-2,-1.4822971E0,3.6189068E-2,-1.905922E-3,-7.9633623E-1,-1.03190675E-1,1.2983392E-1,1.00987434E-1,2.738914E-2,-5.3649694E-1,-1.11384615E-2,1.0818445E-2,-4.6134205E-3,-1.410544E-1,-1.00580886E-1,-1.7992455E-1,6.9369495E-2,8.823147E-1,-5.0591594E-1,-4.7051048E-1,4.051533E-1,-1.0138883E-1,7.509666E-2,9.7624265E-2,-2.2147637E-2,-3.0400505E-2,8.1572145E-2,-7.9918616E-2,-2.3752847E-1,-1.5432774E-1,5.3141046E-2,6.511684E-3,-1.8440083E-1,6.9147865E-3,-5.6911416E-2,7.394719E-2,-5.9636306E-2],"split_indices":[85,18,34,9,56,0,30,80,61,79,24,8,27,61,0,0,0,36,43,31,28,0,0,0,8,0,0,0,0,0,0,0,0,0,0,0,0],"split_type":[0,0,0,0,0,0,0,0,0,0,0,0,0,0,0,0,0,0,0,0,0,0,0,0,0,0,0,0,0,0,0,0,0,0,0,0,0],"sum_hessian":[8.133438E2,6.969013E2,1.16442505E2,1.2192976E2,5.7497156E2,9.554971E1,2.0892796E1,1.1742197E2,4.5077977E0,1.4498099E2,4.2999054E2,1.1543301E1,9.349495E0,1.1584904E2,1.5729265E0,2.6660526E0,1.8417449E0,3.409906E0,1.4157109E2,2.8680225E1,4.013103E2,8.627635E0,2.9156656E0,6.1573877E0,3.1921074E0,5.9911447E0,1.09857895E2,1.8772019E0,1.5327041E0,3.3689373E0,1.3820215E2,1.2989814E1,1.5690412E1,3.1667184E2,8.463848E1,2.1458485E0,1.0462589E0],"tree_param":{"num_deleted":"0","num_feature":"95","num_nodes":"37","size_leaf_vector":"1"}},{"base_weights":[-1.8328147E-2,1.0897374E-1,-8.292578E-1,4.8617402E-1,-4.464773E-2,-1.02677606E-1,6.00547E-2,5.3175974E-1,-1.504892E-1,5.329935E-2,-1.0957301E-1,4.7163838E-1,-9.5451824E-2,5.583946E-1,-2.0184188E-1,2.2252664E-1,-3.680948E-1,9.105042E-2,-2.5907108E-1,6.3494705E-2,-9.814303E-3,8.026724E-2,1.1055927E-2,3.046023E-2,-6.846615E-2,-8.614334E-2,7.2052434E-2],"categories":[],"categories_nodes":[],"categories_segments":[],"categories_sizes":[],"default_left":[0,0,0,0,0,0,0,0,0,0,0,0,0,0,0,0,0,0,0,0,0,0,0,0,0,0,0],"id":27,"left_children":[1,3,5,7,9,-1,11,13,-1,15,-1,17,-1,19,-1,21,23,-1,25,-1,-1,-1,-1,-1,-1,-1,-1],"loss_changes":[8.1655945E1,3.9644745E1,1.8913162E1,1.876933E1,5.017633E1,0E0,8.989316E0,1.4323502E1,0E0,3.190618E1,0E0,5.1156573E0,0E0,9.765335E0,0E0,2.0634447E1,2.7518646E1,0E0,4.449283E0,0E0,0E0,0E0,0E0,0E0,0E0,0E0,0E0],"parents":[2147483647,0,0,1,1,2,2,3,3,4,4,6,6,7,7,9,9,11,11,13,13,15,15,16,16,18,18],"right_children":[2,4,6,8,10,-1,12,14,-1,16,-1,18,-1,20,-1,22,24,-1,26,-1,-1,-1,-1,-1,-1,-1,-1],"split_conditions":[6.8963066E-2,-1.134551E0,3.6189068E-2,5.990242E-1,3.667223E-1,-1.02677606E-1,-2.6838318E-1,1.1076612E0,-1.504892E-1,-2.4628372E-1,-1.0957301E-1,-3.9794106E-2,-9.5451824E-2,-7.886945E-1,-2.0184188E-1,-8.500878E-1,-6.314923E-2,9.105042E-2,1.7735285E0,6.3494705E-2,-9.814303E-3,8.026724E-2,1.1055927E-2,3.046023E-2,-6.846615E-2,-8.614334E-2,7.2052434E-2],"split_indices":[85,15,34,28,37,0,17,62,0,44,0,91,0,2,0,56,91,0,36,0,0,0,0,0,0,0,0],"split_type":[0,0,0,0,0,0,0,0,0,0,0,0,0,0,0,0,0,0,0,0,0,0,0,0,0,0,0],"sum_hessian":[7.891125E2,6.827917E2,1.0632083E2,1.9697556E2,4.858161E2,8.6871826E1,1.9449005E1,1.9328323E2,3.69232E0,4.452719E2,4.054421E1,1.4216789E1,5.232215E0,1.9205835E2,1.2248802E0,3.1802747E2,1.2724444E2,8.728422E0,5.4883666E0,1.7203226E2,2.00261E1,5.0451283E1,2.6757617E2,4.0730606E1,8.651383E1,3.473254E0,2.0151126E0],"tree_param":{"num_deleted":"0","num_feature":"95","num_nodes":"27","size_leaf_vector":"1"}},{"base_weights":[-1.80113E-2,9.416343E-2,-8.6586404E-1,3.8487172E-1,-1.1404534E-1,-9.872293E-1,4.5699364E-1,5.729423E-1,9.035332E-2,-3.9630055E-2,-1.0839416E-1,-1.04753055E-1,5.125471E-2,8.963733E-2,-7.991691E-2,6.265599E-1,-7.280191E-1,2.0438041E-1,-1.7433314E-1,-1.437306E-1,7.7894E-1,6.839565E-2,-9.780532E-2,-1.5621555E-1,7.5894594E-2,2.7062312E-2,-2.4153352E-1,-8.5896745E-2,2.0871067E-3,9.221111E-2,-8.644505E-2],"categories":[],"categories_nodes":[],"categories_segments":[],"categories_sizes":[],"default_left":[0,0,0,0,0,0,0,0,0,0,0,0,0,0,0,0,0,0,0,0,0,0,0,0,0,0,0,0,0,0,0],"id":28,"left_children":[1,3,5,7,9,11,13,15,17,19,-1,-1,-1,-1,-1,21,23,25,-1,27,29,-1,-1,-1,-1,-1,-1,-1,-1,-1,-1],"loss_changes":[7.277877E1,4.0958225E1,1.48059845E1,1.5586006E1,2.8440018E1,7.9721756E0,5.2406616E0,1.2461536E1,2.3609297E1,3.1432552E1,0E0,0E0,0E0,0E0,0E0,1.5942162E1,1.0209084E1,1.8978285E1,0E0,3.8506996E1,1.0590933E1,0E0,0E0,0E0,0E0,0E0,0E0,0E0,0E0,0E0,0E0],"parents":[2147483647,0,0,1,1,2,2,3,3,4,4,5,5,6,6,7,7,8,8,9,9,15,15,16,16,17,17,19,19,20,20],"right_children":[2,4,6,8,10,12,14,16,18,20,-1,-1,-1,-1,-1,22,24,26,-1,28,30,-1,-1,-1,-1,-1,-1,-1,-1,-1,-1],"split_conditions":[-4.7288295E-2,-1.188861E0,1.002965E0,-2.882146E-1,-2.251557E-3,5.534327E0,1.3799625E-2,7.028836E-1,-1.4005035E-2,4.1074246E-2,-1.0839416E-1,-1.04753055E-1,5.125471E-2,8.963733E-2,-7.991691E-2,1.0917515E-1,2.3159394E0,1.9501624E0,-1.7433314E-1,-4.1805023E-1,-5.332707E-1,6.839565E-2,-9.780532E-2,-1.5621555E-1,7.5894594E-2,2.7062312E-2,-2.4153352E-1,-8.5896745E-2,2.0871067E-3,9.221111E-2,-8.644505E-2],"split_indices":[18,37,78,19,27,62,24,28,8,26,0,0,0,0,0,79,11,11,0,69,11,0,0,0,0,0,0,0,0,0,0],"split_type":[0,0,0,0,0,0,0,0,0,0,0,0,0,0,0,0,0,0,0,0,0,0,0,0,0,0,0,0,0,0,0],"sum_hessian":[7.6336786E2,6.749569E2,8.8410904E1,2.813199E2,3.9363705E2,8.121369E1,7.197214E0,1.7110928E2,1.1021061E2,3.6655405E2,2.7082996E1,7.836445E1,2.8492417E0,5.5443387E0,1.6528752E0,1.6483423E2,6.2750635E0,1.0459495E2,5.6156616E0,3.259289E2,4.0625153E1,1.5969571E2,5.1385145E0,3.987594E0,2.2874696E0,1.02889946E2,1.7050008E0,6.0186123E1,2.6574277E2,3.7773266E1,2.8518848E0],"tree_param":{"num_deleted":"0","num_feature":"95","num_nodes":"31","size_leaf_vector":"1"}},{"base_weights":[-1.7993389E-2,-6.0154486E-1,1.3383953E-1,5.462308E-1,-8.709889E-1,3.210541E-1,-1.8811993E-1,8.919456E-1,-4.705012E-1,4.6780124E-1,-1.0121598E0,3.5223603E-1,-1.3877897E-1,6.188327E-1,-3.3682182E-1,9.6916026E-1,9.334645E-3,-1.8805681E-1,9.2847824E-2,-8.5271835E-2,1.18689835E-1,-1.0953424E0,9.071179E-2,4.9571195E-1,4.9772505E-2,-1.6306841E-1,8.2624155E-1,-2.0433555E0,-2.3768596E-1,1.014617E-1,4.1763585E-2,-1.5500276E-1,-1.0480473E-1,-1.3354917E-3,5.827281E-2,-1.7771357E-1,1.6965456E-2,-1.0292941E-1,9.369423E-2,-9.980081E-2,-2.6742157E-1,4.711123E-2,-4.472271E-2],"categories":[],"categories_nodes":[],"categories_segments":[],"categories_sizes":[],"default_left":[0,0,0,0,0,0,0,0,0,0,0,0,0,0,0,0,0,0,0,0,0,0,0,0,0,0,0,0,0,0,0,0,0,0,0,0,0,0,0,0,0,0,0],"id":29,"left_children":[1,3,5,7,9,11,13,15,17,19,21,23,-1,25,27,29,-1,-1,-1,-1,-1,31,-1,33,35,-1,37,39,41,-1,-1,-1,-1,-1,-1,-1,-1,-1,-1,-1,-1,-1,-1],"loss_changes":[6.5707054E1,4.782666E1,3.5537163E1,1.0867637E1,2.3982155E1,2.0339474E1,2.6252254E1,1.2986298E0,1.791592E1,1.2928234E1,1.9008049E1,1.5886917E1,0E0,1.7268734E1,3.062895E1,8.85582E-2,0E0,0E0,0E0,0E0,0E0,7.109375E-1,0E0,1.1019077E1,2.6381569E1,0E0,7.51845E0,3.9032555E0,2.6194683E1,0E0,0E0,0E0,0E0,0E0,0E0,0E0,0E0,0E0,0E0,0E0,0E0,0E0,0E0],"parents":[2147483647,0,0,1,1,2,2,3,3,4,4,5,5,6,6,7,7,8,8,9,9,10,10,11,11,13,13,14,14,15,15,21,21,23,23,24,24,26,26,27,27,28,28],"right_children":[2,4,6,8,10,12,14,16,18,20,22,24,-1,26,28,30,-1,-1,-1,-1,-1,32,-1,34,36,-1,38,40,42,-1,-1,-1,-1,-1,-1,-1,-1,-1,-1,-1,-1,-1,-1],"split_conditions":[-8.7692216E-2,-2.6611369E0,-2.0085955E-2,-6.559269E-1,-8.438356E-1,2.390606E-1,-1.7126191E0,1.7742532E-1,2.2022243E0,-8.5322785E-1,3.5727932E1,-1.7750109E-2,-1.3877897E-1,-4.4937405E-1,-3.383893E-2,2.3064481E-2,9.334645E-3,-1.8805681E-1,9.2847824E-2,-8.5271835E-2,1.18689835E-1,-1.0819274E0,9.071179E-2,-1.064767E0,-1.2793817E-1,-1.6306841E-1,-3.0455258E-1,8.7316014E-2,-1.0385555E0,1.014617E-1,4.1763585E-2,-1.5500276E-1,-1.0480473E-1,-1.3354917E-3,5.827281E-2,-1.7771357E-1,1.6965456E-2,-1.0292941E-1,9.369423E-2,-9.980081E-2,-2.6742157E-1,4.711123E-2,-4.472271E-2],"split_indices":[39,85,8,47,69,15,53,43,32,69,35,74,0,73,72,87,0,0,0,0,0,15,0,63,23,0,28,65,53,0,0,0,0,0,0,0,0,0,0,0,0,0,0],"split_type":[0,0,0,0,0,0,0,0,0,0,0,0,0,0,0,0,0,0,0,0,0,0,0,0,0,0,0,0,0,0,0,0,0,0,0,0,0,0,0,0,0,0,0],"sum_hessian":[7.396865E2,1.5210965E2,5.8757684E2,2.8724028E1,1.2338562E2,3.715367E2,2.1604015E2,2.1527025E1,7.1970034E0,1.1548835E1,1.11836784E2,3.6565826E2,5.8784366E0,3.3124363E1,1.8291579E2,1.9434383E1,2.0926406E0,3.4128563E0,3.784147E0,4.0062E0,7.5426345E0,1.0760252E2,4.234261E0,2.4757855E2,1.1807972E2,2.2170024E0,3.090736E1,8.965813E0,1.7394998E2,1.7178843E1,2.2555406E0,7.144392E0,1.0045813E2,3.6265057E1,2.1131349E2,6.4199963E0,1.1165972E2,1.2729259E0,2.9634436E1,4.346146E0,4.619666E0,3.940602E1,1.3454396E2],"tree_param":{"num_deleted":"0","num_feature":"95","num_nodes":"43","size_leaf_vector":"1"}},{"base_weights":[-1.8074872E-2,6.986533E-2,-9.69284E-1,5.837397E-1,-2.8144905E-2,-1.0440846E-1,5.464953E-2,6.5013355E-1,-8.1112367E-1,-5.601017E-1,8.065321E-2,7.248829E-1,-1.7929597E-1,-1.6740482E-1,6.607392E-2,-8.5718596E-1,2.670004E-1,-2.7177712E-1,9.690243E-2,-5.0858863E-2,7.748416E-2,-2.5421417E-1,5.1946133E-2,-1.0995176E-1,7.31507E-2,7.588341E-2,-9.765461E-2,1.3032026E-2,-1.1614605E-1],"categories":[],"categories_nodes":[],"categories_segments":[],"categories_sizes":[],"default_left":[0,0,0,0,0,0,0,0,0,0,0,0,0,0,0,0,0,0,0,0,0,0,0,0,0,0,0,0,0],"id":30,"left_children":[1,3,5,7,9,-1,-1,11,13,15,17,19,21,-1,-1,23,25,-1,27,-1,-1,-1,-1,-1,-1,-1,-1,-1,-1],"loss_changes":[5.9937458E1,3.306009E1,7.4456406E0,1.026403E1,3.1989685E1,0E0,0E0,6.386574E0,7.7384653E0,2.3288363E1,2.1139807E1,6.110798E0,1.641842E1,0E0,0E0,2.747739E1,1.637554E1,0E0,1.9386621E1,0E0,0E0,0E0,0E0,0E0,0E0,0E0,0E0,0E0,0E0],"parents":[2147483647,0,0,1,1,2,2,3,3,4,4,7,7,8,8,9,9,10,10,11,11,12,12,15,15,16,16,18,18],"right_children":[2,4,6,8,10,-1,-1,12,14,16,18,20,22,-1,-1,24,26,-1,28,-1,-1,-1,-1,-1,-1,-1,-1,-1,-1],"split_conditions":[2.0013747E-1,-1.4822971E0,5.756859E0,-1.905922E-3,-8.7692216E-2,-1.0440846E-1,5.464953E-2,2.867833E-3,2.738914E-2,2.6384267E-1,-2.6065433E0,-1.6695592E-1,-4.7021738E-1,-1.6740482E-1,6.607392E-2,2.2022243E0,-4.3218914E-1,-2.7177712E-1,1.6412447E-1,-5.0858863E-2,7.748416E-2,-2.5421417E-1,5.1946133E-2,-1.0995176E-1,7.31507E-2,7.588341E-2,-9.765461E-2,1.3032026E-2,-1.1614605E-1],"split_indices":[2,18,62,9,39,0,0,87,61,82,1,61,56,0,0,32,3,0,67,0,0,0,0,0,0,0,0,0,0],"split_type":[0,0,0,0,0,0,0,0,0,0,0,0,0,0,0,0,0,0,0,0,0,0,0,0,0,0,0,0,0],"sum_hessian":[7.147212E2,6.5508453E2,5.9636646E1,1.0413608E2,5.509485E2,5.7128654E1,2.5079913E0,9.9914185E1,4.2218895E0,9.284495E1,4.5810352E2,9.176981E1,8.144377E0,2.5749056E0,1.646984E0,6.828242E1,2.4562529E1,1.6848496E0,4.5641867E2,3.2148786E0,8.855493E1,1.2567136E0,6.887663E0,5.9512566E1,8.769851E0,1.788044E1,6.6820903E0,4.4548456E2,1.09341135E1],"tree_param":{"num_deleted":"0","num_feature":"95","num_nodes":"29","size_leaf_vector":"1"}},{"base_weights":[-1.824812E-2,6.314834E-2,-9.6064097E-1,2.3665072E-1,-2.0629258E-1,-1.03836216E-1,5.1955827E-2,-2.8153178E-1,3.630299E-1,3.1196207E-1,-4.3699384E-1,-2.937979E-2,-1.3573134E0,4.1345572E-1,-5.061498E-1,-1.8853028E-1,3.9555964E-1,-8.2060164E-1,7.665051E-2,-1.2211328E-1,3.2482702E-2,5.717482E-2,-1.8271187E-1,4.3152135E-2,-1.3044916E-1,5.299582E-2,-1.6077016E-1,5.0072283E-2,-1.529886E-1,-1.101493E-1,-2.9148124E-3,4.8233163E-2,-8.542221E-2],"categories":[],"categories_nodes":[],"categories_segments":[],"categories_sizes":[],"default_left":[0,0,0,0,0,0,0,0,0,0,0,0,0,0,0,0,0,0,0,0,0,0,0,0,0,0,0,0,0,0,0,0,0],"id":31,"left_children":[1,3,5,7,9,-1,-1,11,13,15,17,19,21,23,25,-1,27,29,31,-1,-1,-1,-1,-1,-1,-1,-1,-1,-1,-1,-1,-1,-1],"loss_changes":[5.3449924E1,3.0043365E1,6.9126434E0,2.5691889E1,3.0248772E1,0E0,0E0,2.089571E1,1.3996948E1,1.5103181E1,3.4484135E1,2.722117E1,1.430615E1,9.807808E0,2.1052628E1,0E0,1.6180233E1,2.221939E1,2.8962292E1,0E0,0E0,0E0,0E0,0E0,0E0,0E0,0E0,0E0,0E0,0E0,0E0,0E0,0E0],"parents":[2147483647,0,0,1,1,2,2,3,3,4,4,7,7,8,8,9,9,10,10,11,11,12,12,13,13,14,14,16,16,17,17,18,18],"right_children":[2,4,6,8,10,-1,-1,12,14,16,18,20,22,24,26,-1,28,30,32,-1,-1,-1,-1,-1,-1,-1,-1,-1,-1,-1,-1,-1,-1],"split_conditions":[2.0013747E-1,-2.0085955E-2,5.756859E0,-8.373478E-2,-8.633369E-1,-1.03836216E-1,5.1955827E-2,-3.922226E-1,1.105128E0,-6.7891264E-1,3.1730123E-2,-2.3685315E-1,-5.190931E-1,2.4660766E-2,-3.475161E-1,-1.8853028E-1,1.7557191E0,-4.239162E-2,-2.452447E-3,-1.2211328E-1,3.2482702E-2,5.717482E-2,-1.8271187E-1,4.3152135E-2,-1.3044916E-1,5.299582E-2,-1.6077016E-1,5.0072283E-2,-1.529886E-1,-1.101493E-1,-2.9148124E-3,4.8233163E-2,-8.542221E-2],"split_indices":[2,8,62,59,15,0,0,59,63,69,25,65,25,5,30,0,71,51,27,0,0,0,0,0,0,0,0,0,0,0,0,0,0],"split_type":[0,0,0,0,0,0,0,0,0,0,0,0,0,0,0,0,0,0,0,0,0,0,0,0,0,0,0,0,0,0,0,0,0],"sum_hessian":[6.9501135E2,6.406132E2,5.4398132E1,3.8975693E2,2.5085632E2,5.1967937E1,2.4301956E0,7.617891E1,3.13578E2,7.71629E1,1.7369342E2,6.2546074E1,1.3632837E1,2.9687878E2,1.6699238E1,2.0382318E0,7.512467E1,9.909109E1,7.460234E1,1.3769647E1,4.877643E1,2.6274226E0,1.1005415E1,2.9453036E2,2.3484066E0,8.872632E0,7.8266063E0,7.193566E1,3.189008E0,7.284592E1,2.6245165E1,5.2294056E1,2.230828E1],"tree_param":{"num_deleted":"0","num_feature":"95","num_nodes":"33","size_leaf_vector":"1"}},{"base_weights":[-1.8960902E-2,5.6986496E-2,-9.518403E-1,2.986739E-1,-1.2026485E-1,-1.0327255E-1,4.9332563E-2,4.7898254E-1,2.4734898E-2,-6.0675483E-2,-1.06731765E-1,5.418761E-1,-7.916504E-1,1.7120679E-1,-1.2270595E0,-1.5581885E-1,7.112618E-1,6.8611614E-2,-2.6056874E-3,-1.3856904E-1,7.042393E-2,5.8155876E-2,-2.2599613E-2,-2.7397612E-1,7.888362E-2,-7.861303E-2,-1.2078902E-3,9.21659E-2,-2.9276162E-2],"categories":[],"categories_nodes":[],"categories_segments":[],"categories_sizes":[],"default_left":[0,0,0,0,0,0,0,0,0,0,0,0,0,0,0,0,0,0,0,0,0,0,0,0,0,0,0,0,0],"id":32,"left_children":[1,3,5,7,9,-1,-1,11,13,15,-1,17,19,21,23,25,27,-1,-1,-1,-1,-1,-1,-1,-1,-1,-1,-1,-1],"loss_changes":[4.765141E1,2.6689419E1,6.4279594E0,1.3004629E1,2.0231632E1,0E0,0E0,1.3124825E1,1.9582783E1,2.5039223E1,0E0,1.2466938E1,7.995118E0,1.5692003E1,3.6285763E1,2.744202E1,8.175289E0,0E0,0E0,0E0,0E0,0E0,0E0,0E0,0E0,0E0,0E0,0E0,0E0],"parents":[2147483647,0,0,1,1,2,2,3,3,4,4,7,